620 100
498 0.2934327 -0.37684247 -0.43480906 0.30628872 -0.08737593 0.39935535 0.3405846 -0.18550052 -0.066883005 -0.4544558 0.03401632 -0.0025517864 0.25440806 -0.14385809 -0.30472565 0.3480327 -0.17185013 0.076087 0.21630235 0.4525243 0.30607927 0.20357846 0.20683841 0.0077051097 0.6511579 -0.37305743 0.016277714 0.00037337106 0.1371416 0.28605795 -0.48529965 0.01583317 -0.063903406 -0.47471577 0.0608443 0.4977608 -0.006210791 -0.08015441 -0.0016973004 0.40979573 -0.22369772 -0.47290695 -0.3131813 0.07139469 0.113443606 0.7072724 0.061305366 0.33174455 0.12948824 0.023110937 0.10241878 -0.17350885 0.54069775 -0.2133442 -0.06452422 0.010533375 0.13201591 -0.19866015 0.16542594 0.5466359 0.21187395 0.14464849 0.9549296 0.008788295 0.33913696 0.06267912 -0.68663806 -0.36460933 -0.15832561 0.3982088 0.14604966 0.12563659 -0.4204316 0.21164556 -0.23227511 -0.28253254 0.014745471 0.054939304 -0.415809 0.07438761 -0.28737715 0.40965167 -0.19195129 0.3608396 -0.5335844 -0.113982715 0.014158543 0.40126842 -0.012768104 0.17159548 0.006035746 -0.68948454 -0.6480926 -0.05336 0.35042837 -0.078363 -0.046884917 -0.08991598 -0.66430855 -0.14168507
518 0.09250742 -0.0010014037 -0.39659515 0.4062901 -0.1479612 0.28746212 -0.024320409 -0.5352659 -0.06582011 0.07667954 -0.00088594574 -0.27203214 -0.055920567 0.5951161 0.21431464 0.26205045 -0.26486647 -0.1469891 0.12925848 0.20505409 0.3805219 -0.10874997 -0.5443729 0.5491046 0.99407864 0.07890531 -0.5128325 -0.06972303 -0.16180386 -0.13608164 -0.4816102 0.16074729 -0.19073194 -0.021743452 0.2881533 0.020298323 -0.056050994 -0.34723842 0.34547228 0.026979096 0.23711705 -0.20455559 0.30968267 -0.054591972 0.38515443 -0.04293261 0.6261764 -0.4234918 0.24236976 0.11482858 -0.04992793 0.21913184 -0.015646797 -0.41124392 0.15837583 0.08793986 0.34715596 -0.34538788 -0.11089524 0.16697481 -0.16498306 0.24754357 0.5753805 0.4317772 0.61330885 0.22511618 -0.18468869 -0.4288532 -0.035225514 -0.29434714 0.19233793 0.030670237 -0.5294922 0.5538645 0.21044959 0.059826374 -0.046016507 0.232944 0.35547405 0.6527251 0.58413374 0.24658932 0.2504217 0.2660025 -0.21314535 -0.4951322 0.38831598 0.5275479 0.020987947 0.37521425 0.2030901 0.12753202 0.23384434 -0.12864763 0.13512345 0.43306342 1.008524 0.22151217 0.0576962 0.060788922
265 -0.34406668 -0.0045698057 -0.42252526 0.3474928 0.09259697 0.7288751 0.4574543 0.41431865 -0.13896693 0.121655 -0.18558945 -0.24677143 -0.07559455 0.38733172 0.27440906 0.40848228 -0.42050627 0.009464034 -0.05009668 -0.23947188 -0.38580853 -0.3845312 0.24227813 -0.10466641 0.69233257 0.18414167 -0.22891584 0.17999274 -0.34807763 0.66168875 -0.7961333 -0.19389004 -0.20825565 0.33346492 0.11935173 0.58008826 0.17524697 0.09436206 0.34298223 0.445506 0.19956139 0.009371884 -0.38890135 0.35040858 0.11188249 0.32701498 -0.71961904 -0.5916038 -0.5323428 -0.11727729 0.46257007 -0.19802378 0.26624915 -0.42400226 -0.17715892 0.122100376 -0.08033584 -0.23351963 -0.391865 0.38388836 0.13638736 0.11930399 -0.024996942 0.013598529 0.67488414 0.02654016 -0.64311576 -0.2470462 -0.09496852 -0.36234456 0.36434793 -0.18371984 -0.44480622 0.3315131 -0.39208093 0.016301235 -0.09317269 -0.052949015 -0.29894364 -0.07604827 0.15889469 0.013907745 0.06561138 0.5117692 -0.13152263 -0.3168579 0.14519793 0.13065961 0.12860519 0.18013443 0.3142209 -0.46341136 -0.5215652 0.5301542 0.08539689 0.5430895 0.021760492 -0.16425915 0.103910424 0.24353893
555 0.05111155 -0.31169137 -0.37393174 -0.018297618 -0.3801498 0.33423737 0.26350728 -0.3991942 -0.51473254 -0.6308185 0.4229313 -0.3423465 0.531919 0.43373224 -0.29392514 0.12962504 -0.5535296 -0.5406848 -0.057513483 0.17451453 -0.3115078 -0.73820716 -0.4579854 -0.082737416 0.23138422 -0.024349347 0.119144335 -0.09772618 0.064124115 -0.007337455 -0.18451701 0.6745812 -0.3591008 -0.06556269 0.34363008 -0.50140834 0.022745956 -0.28408718 -0.25723383 0.08611664 -0.11280429 -0.6828723 -0.6220959 0.39275816 -0.21435969 0.31876558 0.07719012 -0.28881034 -0.62570554 0.15773953 0.19949077 0.27950206 0.2031581 -0.1262924 -0.39962924 0.20519763 0.00011283663 -0.15467304 -0.016762564 0.33295178 -0.390784 0.09881724 0.2453592 -0.34101853 0.40772784 0.81155926 -0.4986492 -0.535156 0.24066988 -0.6680428 -0.056643955 0.10391753 -0.20345071 0.5477713 -0.7085323 0.33542806 -0.52995455 0.5330605 -0.10995846 0.77270323 0.22285455 0.04915832 -0.3220758 -0.17056961 0.012343315 -0.45925564 -0.4002225 -0.023350386 -0.46603674 0.23204935 0.4473531 -0.42038032 0.068624355 0.013405289 -0.20499085 0.15513177 0.12912668 -0.36144167 -0.04383611 -0.28926003
524 -0.06678133 0.18323392 -0.12921937 -0.047005855 0.109207034 0.18613295 0.32334447 -0.4299493 0.05489541 0.13761376 -0.23733094 -0.052521467 -0.054702222 0.3735474 -0.58356094 -0.0326713 -0.57044387 -0.25523806 0.105835825 0.2193905 -0.16051888 0.16172002 -0.8832982 0.34890163 0.63770115 0.12084588 -0.41980898 0.046287134 -0.52767235 -0.52002436 -0.5474483 -0.43062866 -0.12051649 -0.07210529 0.6271478 -0.0027151194 0.024108104 -0.61386925 0.4697218 0.10606828 0.25367823 -0.019741358 -0.008058683 -0.26959527 0.14922978 -0.58808416 0.42889646 -0.53761643 -0.40466613 0.04273961 0.60527194 0.21004686 0.252459 -0.20376265 -0.1530842 0.07658194 0.2695842 -0.5953973 0.14323983 0.22105683 -0.014193455 0.31368178 0.48414266 0.26153848 0.5396103 -0.08446738 -0.5764696 -0.45465335 -0.22141217 -0.44840991 0.2973721 0.008467588 -0.18268321 0.36839604 0.14060684 0.24209921 -0.641237 0.2865868 -0.016222063 0.46451628 -0.0092946 0.33144075 -0.08341251 0.5986762 -0.68089736 -0.8461772 0.29210228 0.23501283 0.13806137 0.36628944 -0.047071923 -0.19547662 0.023916496 -0.46427858 0.46010968 0.06661573 0.6608289 0.12655711 0.13673802 -0.24110998
611 -0.20561396 -0.48155433 -0.74046266 0.0072919247 -0.1062587 0.8105284 0.14145489 0.16205244 0.1333424 -0.5927311 -0.15396519 -0.6294344 0.568988 0.058813054 0.024096815 0.17640743 -0.52179927 -0.30435455 -0.10532166 0.46516645 0.060058817 0.033091888 0.22578946 -0.2711836 0.089542806 -0.12405244 0.2906746 -0.22234398 -0.17730226 0.26523784 -0.12035099 0.77202827 -0.29058722 0.29682356 -0.004805088 0.08216641 -0.07183841 -0.5233602 -0.32960454 -0.35082072 0.08072915 -0.24032052 -0.049392436 0.09051226 -0.16628204 -0.04892537 -0.07851448 -0.10591059 -0.63808334 0.28217435 0.54681224 -0.067303315 0.05997444 -0.1702937 0.012370165 0.004317244 0.51159203 0.061142486 -0.055147078 0.087911494 0.15423614 0.5244137 0.01999701 -0.023604216 -0.22725831 0.31209314 -0.3854801 0.14907941 0.08798539 -0.1701087 -0.1342457 0.3821624 -0.00020677294 0.56120354 0.07312568 0.39815682 -0.2981712 0.40860924 -0.07289601 0.3829428 0.5486158 -0.37956384 -0.34028515 0.20517838 -0.16767398 -0.43013254 -0.105182774 -0.65535414 0.1889414 0.817203 0.1195053 -0.13629681 -0.27878568 -0.39127594 -0.14218639 0.18001178 -0.0371997 0.49759302 0.32376307 -0.007184723
389 -0.17718993 -0.86363834 -0.30745333 0.030130405 0.080809675 0.107150584 -0.3053078 -0.20380916 0.09801888 0.3500886 0.26994878 -0.38177222 0.19501525 0.39464206 0.08245673 0.27270928 0.42543224 -0.2367062 -0.2193751 -0.04157998 0.20702796 -0.1380508 -0.3563516 -0.31575507 0.66717666 0.18613349 0.22618838 -0.38544777 0.029289182 0.4467403 -0.596863 0.5139899 -0.36306038 -0.41303527 -0.02123731 -0.0172945 -0.7365189 -0.26790845 -0.31257516 -0.42519537 -0.29819253 -0.037536684 -0.059122384 0.08760102 0.08367558 0.17597997 -0.2345915 -0.37486553 -0.95378536 0.1705659 0.34713382 -0.2444927 0.7352215 -0.16709124 -0.3286256 -0.008269999 0.6261987 -0.41636303 0.19139428 0.20331739 0.34363133 0.12437974 0.48224968 -0.21016107 0.3385568 0.29342777 -0.2620714 0.038073063 -0.27373192 -0.12201037 0.26046684 -0.09235727 0.0044522905 -0.2857319 -0.34889883 0.24436489 -0.6958948 0.4315349 -0.24082708 0.2650094 1.1190104 -0.047513325 0.091863915 0.40119457 -0.41729763 -0.77404135 -0.041177057 0.06534936 0.2866305 0.083695136 -0.29121894 -0.5036366 -0.45499486 -0.35596982 -0.2844791 0.55012846 0.52683 0.50081104 -0.35768628 -0.03889734
613 -0.37649626 -0.68054 -0.62279725 -0.13110963 -0.10905034 0.4575941 0.8988368 -0.36255422 -0.17639528 -0.0031065117 0.23841237 0.118980095 0.21471186 -0.25743073 0.56543154 -0.0034282191 -0.48361832 -0.25290218 0.2367544 0.46542615 -0.24082029 -0.053413697 -0.52802664 0.5111923 0.49965227 -0.4015073 -0.075268485 0.13011065 -0.14787857 0.43319058 -0.23479092 0.344144 -0.24588628 -0.19932666 0.5209703 0.12632301 0.38640836 -0.3263917 0.39814728 0.060850304 0.23249502 0.070788085 -0.2968702 0.19617043 -0.42340943 0.17193443 0.36212635 -0.4160515 -0.5597171 0.30246356 -0.3182229 -0.52748907 0.6828804 -0.21633098 -0.55539477 0.24595691 -0.00205269 -0.008410764 -0.14490919 0.22823405 0.045952123 0.49674907 0.7820347 0.56736857 0.146827 -0.091442555 -0.296317 -0.5112556 -0.06911725 -0.26025328 -0.023499632 0.18319707 -0.0007824571 -0.29645795 -0.20734383 0.022689413 -0.24877228 0.044677753 0.75408334 0.074432515 0.18854481 -0.13144748 0.54097545 -0.13096893 -0.8461878 -0.7615028 -0.12993117 0.24761292 0.16511425 -0.03590488 -0.09395622 -0.023393031 0.0034853718 0.07275469 -0.5177413 1.02807 0.43993163 -0.22216323 -0.25550815 -0.0044153156
505 0.07330425 -0.47994253 -0.7654091 0.21494074 -0.4032933 0.7052538 0.24694216 -0.12452749 0.024883514 -0.39488018 -0.72407734 -0.8839765 0.34481177 -0.12623973 0.11634338 0.058317874 -0.87259084 -0.107075654 -0.5076293 0.2629607 0.038535163 0.14047681 -0.21404926 -0.19184302 0.3140697 -0.29180464 0.48653013 -0.078484714 -0.36140358 -0.09985444 -0.52235025 0.9644838 -0.36040467 -0.07905033 -0.3196151 0.15765545 -0.10764678 -0.23378383 -0.37105626 -0.40231222 0.14886662 0.19120248 -0.1931506 -0.02977503 -0.16857167 -0.12450824 -0.38316426 -0.2637563 -0.53502446 0.34344506 0.438757 -0.09285153 0.33764872 -0.08830248 -0.22206067 -0.36065912 0.37602937 -0.18836597 -0.1270612 0.04040721 0.08556572 0.75194585 0.58606875 -0.034253523 -0.00088519306 -0.097666584 -0.103947766 -0.12712319 -0.25701058 -0.24191234 -0.2971069 0.07311364 0.09541281 0.7640805 -0.08577024 0.06460688 -0.26651394 0.12828799 0.28710833 0.41745862 0.0415286 -0.37053514 -0.11078705 0.2261954 -0.19022524 -0.29003423 0.33455408 -0.12240591 -0.11109724 0.74231637 0.23884942 -0.08099069 -0.53263336 -0.24271965 0.03815856 0.16035748 0.21687464 -0.07863681 0.45912692 -0.27623168
151 -0.6745841 -0.70837635 -0.31694618 0.113803595 0.103832 0.31642637 0.22895399 -0.26588178 0.024733512 -0.03544301 -0.22826715 -0.14271 -0.014992963 0.33180124 -0.6238388 -0.3270291 -0.08696283 0.16266075 -0.47068515 0.8671612 0.1695832 0.33197597 0.19459438 0.333427 0.9090654 0.21772456 0.42178044 -0.7120646 -0.18554391 0.29894504 -0.46285024 -0.004287942 -0.005437716 0.21649396 0.1171278 0.57058704 0.026869433 -0.122064285 0.2096012 0.3141967 -0.15086323 -0.15923461 -0.5075994 0.9685258 0.039293 0.23840855 -0.005049879 -0.82494533 -0.43727338 0.10794969 0.37933728 -0.021986576 0.5361582 -0.44434056 0.13420309 0.09751481 -0.10265467 -0.56168395 -0.6636913 0.47853684 -0.28150168 0.16248615 0.41244298 -0.10811569 0.2596872 0.25433505 -0.3312876 -0.7510961 -0.53883475 0.034878593 0.3024723 -0.058950502 0.03593172 0.3784219 -0.67111117 0.14832297 -0.4296217 0.121247694 -0.13568965 -0.13241103 -0.2654817 0.4783026 0.33373466 0.31720614 -0.23750028 -0.034422968 -0.28316137 -0.47624815 -0.01933157 0.055832174 0.47156835 0.16299306 -0.03310419 0.1306571 -0.20752327 0.6595626 0.40500343 0.29384747 0.11946474 0.018496027
616 -0.47075096 -0.41102082 -0.09984199 -0.19894342 -0.21028078 0.51809704 0.5992718 0.19507745 0.06082763 -0.0428002 -0.094523884 -0.34324327 -0.07796825 0.30771178 -0.42723125 -0.04116511 -0.19635494 0.19816436 -0.05670373 0.124818206 -0.018025305 -0.18344925 0.32023704 -0.068241715 0.65128 0.19270134 -0.037904628 -0.36333162 -0.14476413 0.39240858 -0.40352738 -0.2140589 -0.43945006 0.19068597 0.08066851 1.0342125 0.022515668 0.28426287 -0.015282537 0.7323434 -0.20057769 -0.4135444 -0.41778082 0.20830628 -0.103321634 0.59383583 -0.3665223 -0.18824777 -0.054806273 0.037486628 0.50889134 -0.045033537 0.37738568 -0.33623812 -0.13505363 0.08397267 -0.17981118 0.096627444 -0.3610544 0.33056465 -0.004292747 0.06386155 0.2258465 0.27463877 0.4698796 -0.0011000565 -0.3827753 -0.50851244 -0.2529513 0.040774383 0.37506655 -0.43291214 -0.281599 0.63696724 -0.42794064 0.10406966 -0.17367658 -0.107420795 -0.4264768 -0.36596197 0.18589224 -0.081436016 -0.07229634 0.537975 -0.34407762 0.050363906 0.03473262 0.09706197 0.11791568 0.5358355 0.3506617 -0.26225066 -0.43001404 0.35905764 0.21732788 0.55816406 -0.062247038 0.0712963 0.028357057 0.32383123
282 0.0042877025 -0.51409364 -1.2600124 -0.22557035 0.31252995 0.19539337 -0.0011107116 0.08182729 -0.4609877 -0.29623035 0.055444226 -0.8920209 0.29056892 0.19344997 0.18019572 0.1870128 -0.16048628 -0.10684525 0.09564088 0.52883226 -0.34109727 -0.08533893 -0.0871619 0.5961203 0.19335048 -0.034167398 -0.10644448 0.10653444 -0.5773619 0.030750228 -0.23823163 0.26750088 0.1591775 0.20809793 -0.42166367 0.46659076 0.0712746 0.013412603 -0.36139742 -0.15534994 -0.0017111255 -0.2998662 -0.60170484 0.16043022 -0.45296568 0.08773074 -0.122903414 -0.5565951 -0.32208195 -0.28952867 0.5437734 0.11349047 0.61133075 -0.5731414 0.42165223 0.41213056 0.642783 0.18529056 0.36130625 0.7091733 0.70819455 0.17971748 0.79190004 0.1257644 0.452148 0.0099724475 -0.5740643 -0.2856816 0.14805065 -0.6377004 0.10763629 0.47325805 -0.71732545 0.14224665 -0.12867238 0.24019207 -0.69396466 0.32232302 0.29988256 0.0666734 0.36451623 0.2870649 -0.42401153 0.33072186 -0.5305521 -0.29551086 -0.08671079 -0.22591789 0.37289822 -0.23318559 0.3427964 0.3259291 0.08689703 -0.3077843 -0.41225162 -0.036883254 0.32259297 0.4310149 0.2134785 -0.56699383
432 -0.24336626 -0.51199555 -0.885772 -0.08282671 0.023847288 0.5390645 -0.089246094 -0.21962897 -0.0051427027 -0.45047426 -0.15958786 -1.0008204 0.47867358 -0.03381358 0.08367858 0.025181385 -0.39020753 0.12016893 -0.06742704 0.59993935 -0.37642244 -0.1059102 0.21304512 0.09928823 0.121479236 0.09311924 0.070543356 -0.12384671 -0.5117337 0.3559206 0.04252269 0.4805158 -0.21693744 0.17411494 -0.12660366 0.39736134 0.09039958 -0.22860473 -0.40490296 -0.28798354 0.028229013 -0.22862075 -0.35157827 0.035570554 -0.28699633 -0.212523 -0.16771613 0.0032500867 -0.60670483 0.12500139 0.1726495 0.16263705 0.43790346 -0.56560826 0.1898494 -0.0016322501 0.562205 0.18918082 0.54450583 0.49171615 0.2711532 0.5069395 0.32895687 0.18596916 0.04794755 0.20214179 -0.5785421 -0.046301614 0.03557041 -0.7054999 -0.09556716 0.195522 -0.47478548 0.2733404 0.039780393 0.16010308 -0.7068838 0.48118502 0.044090744 0.3381892 0.7954392 -0.081295654 -0.34459454 0.15109593 -0.1424555 -0.1638958 0.47402644 -0.53710765 0.27979878 0.29169765 0.09052385 0.020920204 -0.050348353 -0.60741776 -0.102499425 0.3856322 0.026760451 0.12328848 0.36403322 -0.48369238
264 -0.09363749 -0.3279731 -0.92329586 0.32572207 -0.07727516 0.5233599 -0.033248708 -0.26673412 0.021110894 -0.377498 0.018089613 -0.09030893 0.33077866 -0.029118327 -0.07585304 -0.25509608 -0.16302948 0.077048115 0.24623075 0.33179346 -0.08563888 -0.45500138 -0.47556242 0.40521178 0.6581955 -0.15321103 -0.31677154 0.13744992 0.200105 -0.051515844 -1.1414274 0.050112925 0.15996487 -0.24214229 -0.19767106 0.42807984 0.3544357 -0.29320005 0.34682834 -0.16623352 -0.20920226 0.18366823 -0.36054847 0.34908962 -0.12573864 0.52858603 0.34536117 0.37383223 -0.23288627 0.33296642 0.56052625 -0.4318722 0.557228 -0.14410105 -0.2910139 -0.1271685 -0.14428627 -0.66164094 0.4220705 0.24465081 0.41033158 0.6697643 0.51044136 -0.28861567 0.031227056 0.5182602 -0.12687968 -0.7374978 -0.3668999 -0.4195687 0.57536566 0.039843667 -0.3586434 0.17823462 -0.033140805 -0.6014595 0.049291536 0.38331014 -0.98410887 -0.15216282 0.01753789 0.23000036 -0.3624226 0.07200222 -0.9994169 0.25599328 0.035334397 0.124801405 -0.26169452 0.30997393 -0.43239465 -0.46822757 -0.12986805 -0.44962057 -0.08405151 0.21508017 -0.03039883 -0.048846733 -0.6516727 -0.3295229
478 -0.19747214 -0.28563362 -0.51310295 0.54184824 -0.13571933 0.1622152 0.06974194 -0.37145746 -0.33742133 0.37815678 0.062336553 -0.26323977 0.43983015 0.07891342 0.54272115 0.058505133 -0.34178573 -0.23052688 0.31726336 0.38734266 -0.11195104 -0.086827196 -0.89184785 0.8210767 0.65415543 -0.6163696 -0.026375081 -0.030035026 0.16988383 0.0020292997 -0.3365234 0.44530746 -0.39836237 -0.23824632 0.56070864 -0.0227082 -0.35469505 -0.30799773 0.29410064 0.36987826 -0.09420581 -0.06698277 0.14853343 0.6605399 0.14306691 0.27582642 0.06294466 -0.33136457 -0.03239716 -0.26420957 0.048787292 -0.5078873 0.040186256 -0.39356008 -0.10810461 0.12666097 -0.293641 -0.058168575 0.12693013 0.04171777 -0.24041188 0.67643857 0.60063845 0.63729066 0.6947964 0.24170174 -0.60182196 -0.8574986 0.15290958 0.19638407 0.19212101 0.22709586 -0.4505552 0.50208586 0.50042355 0.08029894 -0.27817774 -0.28971228 0.08515236 0.25222242 0.56839323 0.08402142 0.16906324 -0.010202374 0.051251713 -0.27468663 0.19744782 0.2280907 -0.030850658 0.5093066 0.24190418 0.35115987 0.46353933 -0.14457047 -0.28211775 0.7069292 0.9886704 0.456709 -0.28239194 -0.36055723
368 -0.013302314 -0.23914275 -0.3225163 0.061050057 -0.13974968 0.42256954 0.08954482 -0.25528768 0.0013588167 -0.22786514 -0.21994154 -0.32122535 0.12771834 0.13570544 -0.16998762 -0.09066131 -0.3394563 -0.016660152 -0.00026567635 0.6285034 0.29262012 0.1607364 0.30550247 -0.42884144 0.35920703 -0.88032806 -0.37880245 0.06460152 -0.1933176 0.33252952 -0.115800455 0.18145297 -0.30788475 -0.31931964 -0.06151958 1.1648899 0.14185736 0.20908536 0.27292112 0.59234184 -0.4743822 -0.42680645 -0.21795525 0.17467666 0.05332798 0.09883557 -0.0113107115 -0.5393974 -0.03556618 0.22961834 0.031961057 -0.49371693 0.73827094 -0.46136263 -0.5335884 0.35703307 -0.004905494 0.0937974 0.5621436 0.58808386 -0.11348167 -0.0037444837 0.32503754 0.059408143 0.6753879 0.09431629 -0.4615128 -0.39859033 -0.15081494 -0.17907575 0.55018765 -0.4529819 -0.6782607 0.10564108 -0.08655333 0.27351382 -0.43973312 0.26030895 -0.7450125 -0.3284436 -0.14230095 -0.12280019 -0.2643978 0.43499258 -0.61642975 -0.16806832 -0.09935127 0.65203685 -0.10999225 0.59700406 0.37892193 -0.5205466 -0.41072205 0.5591718 0.102343366 0.24852777 0.3610498 0.015693305 -0.56511194 0.25125435
248 0.06620787 -0.12906736 -0.64657915 0.29502484 -0.059253007 0.14617655 0.24434504 -0.58617365 0.08137009 -0.497183 0.07677361 -0.41194144 -0.013021334 -0.86888385 0.07198511 0.33684674 -0.080569446 -0.16090481 0.446702 0.41511142 0.25380224 0.07601397 0.2518474 -0.14431019 0.43908557 -0.24969544 -0.06340907 -0.19228895 -0.0046685995 0.16722986 -0.3113604 0.11155157 -0.1612341 -0.5848339 -0.23743357 0.0027490454 0.027747499 -0.060237937 -0.04146254 0.63259554 -0.0659014 -0.43153915 -0.36655554 0.5088904 0.12868825 0.49863207 0.17474788 -0.031025665 -0.19457464 0.20441023 0.18643105 -0.15235016 1.0228565 -0.5019292 -0.04478381 0.18491434 -0.05873156 -0.37043753 0.33858997 0.6262137 0.21063435 -0.20378578 0.8898905 0.19684103 0.3561745 0.32614917 -0.40291074 -0.43919608 0.43470037 0.34989008 -0.07576708 -0.24266209 -0.10569875 0.6305989 -0.491135 0.036427476 0.1221372 -0.20119174 -0.035514865 0.2586546 -0.18861856 0.4505962 -0.08487699 0.40243694 -0.47883016 -0.05873762 0.39500704 0.14169732 0.100500904 0.50520974 0.23015054 -0.82471025 -0.6887513 -0.27025467 0.38570848 -0.035310976 0.47828445 -0.19137599 -0.5649113 -0.53807616
345 -0.3530592 -0.6938067 -0.21238437 0.019192914 0.030730614 0.12600544 -0.25109982 -0.112236336 0.1696853 -0.1804043 -0.36599213 -0.5422932 0.20567538 0.6543499 0.3229536 -0.010298148 0.37137786 -0.5123517 -0.14693241 0.22730389 0.45216283 -0.23048712 -0.34227782 -0.28742298 0.49233228 0.5425586 0.12463492 -0.4030808 0.07975577 0.360445 -0.78840077 0.39026016 -0.30334663 -0.37163627 -0.25259888 0.00754197 -0.21359499 0.07799367 0.28867528 -0.70235103 -0.3298528 0.0936502 0.13200434 0.07295271 0.035906304 0.36225164 0.18932614 -0.18144009 -0.9304823 0.4560787 -0.04245213 0.11287305 0.38984904 -0.17015173 -0.40014258 0.41606918 0.5127357 0.006015141 0.10102334 0.20711182 0.2889788 -0.018698737 0.8291661 0.23458712 0.6211015 0.6557568 0.11587348 -0.61245525 -0.1087214 0.10114765 -0.14724158 0.026763175 0.062695965 0.42344472 0.24388377 0.41437176 -0.46170393 0.24399167 -0.18291526 0.39694032 1.1193832 -0.3039749 0.22787817 0.56363034 -0.08879172 -0.5487124 0.07948902 0.12175488 0.2219509 0.17495966 0.045421634 -0.7812115 -0.31930766 -0.48545486 -0.40591586 0.26362288 0.7702076 0.052573256 -0.21062905 0.26965603
49 -0.3595921 0.04327428 -0.8963853 0.042441517 -0.01438453 0.89477485 0.7184601 0.10217325 -0.22879899 -0.07812176 0.049188506 -0.15735571 0.08207397 0.8391081 0.6941791 0.40439996 -0.4436316 -0.32587472 -0.30380467 -0.29008734 -0.57615745 -0.4758648 0.19282144 -0.01872341 0.53214663 0.46183652 -0.47287786 -0.0071157613 0.40366784 0.7861861 -0.80300003 -0.24512766 -0.23174377 0.69344765 0.5079369 -0.018786091 0.2210536 -0.04072702 -0.037421446 0.26333222 -0.076508746 0.38484538 -0.70896184 0.17960623 0.11024876 0.33817068 -0.38338068 -0.59880114 -0.63040304 -0.17865811 0.23917751 -0.44798785 0.497457 -0.6885098 -0.19393723 -0.12118395 -0.38429675 -0.5703839 0.16179577 0.26865116 0.14133593 0.40537772 0.34251404 -0.47271752 0.62901425 0.38962725 -0.62597865 -0.197897 0.4239022 -0.16673988 0.5694075 -0.5624847 -0.40324083 0.17404626 -0.25085223 0.23565675 -0.88063145 -0.24277052 0.21264373 0.05609775 -0.009848696 0.12413099 0.46731162 0.6428606 -0.21319 -0.26931477 0.6055094 0.34645134 0.38915497 0.1534739 0.4357331 -0.20938343 -0.17965198 -0.0221449 0.17262076 0.16860686 0.119371764 0.20522119 -0.2837323 -0.21560101
545 -0.4204599 -1.0540457 -0.89449024 0.045827646 -0.3081995 0.4340398 0.6457247 -0.09168601 -0.104865536 -0.20449834 0.1784159 -0.014549378 -0.14960402 -0.30331284 0.3661424 0.08376571 0.002082759 -0.16525798 0.17158155 0.15775731 -0.40386724 0.021543374 -0.42299515 0.50753856 0.4191446 -0.065741956 0.023374515 -0.19639051 -0.34331635 0.63723445 -0.5984059 0.28699943 -0.39002815 -0.35381332 0.35886124 0.33274046 0.4491725 -0.49564272 0.47859618 -0.0012097184 -0.0061607407 0.22800563 -0.64453924 0.08646695 -0.5303847 0.015912028 0.7251611 -0.39456174 -0.82017845 0.091461316 -0.28277978 -0.5254559 0.5226506 0.076942846 -0.41336375 0.031563826 -0.113701984 -0.066035226 -0.20639531 0.32789463 0.3496219 0.42507225 0.7122808 0.7193351 -0.039572276 -0.12764788 -0.3901562 -0.5321075 0.10811325 -0.14260566 0.030002337 -0.06764174 -0.07642105 -0.38110507 -0.28612363 0.32910615 -0.27222544 0.22336109 0.89147085 0.65339833 0.055727597 -0.24723087 0.10921515 -0.16261353 -0.72645444 -0.57384676 -0.49606767 0.3664141 0.104368925 -0.23769139 0.12406267 -0.02122437 -0.12575503 0.24646667 -0.30792654 0.86735016 0.40236646 -0.3768758 -0.2594862 -0.35613972
329 -0.08751153 -0.7027448 -0.57918525 -0.15274149 -0.0268406 0.38132605 1.114993 0.24835843 -0.3705295 -0.18006065 0.14121109 0.20373668 0.085624814 -0.5079331 0.32970333 0.10552865 0.11186084 -0.2397036 0.45415938 0.08139717 0.113243066 -0.2909889 -0.04055105 0.77349186 0.9323484 -0.5469008 0.111551054 0.31475776 0.04031233 0.16020001 -0.32525298 0.2029516 -0.5361531 0.22176409 0.24778089 0.051722247 0.00069509953 -0.44733617 0.22645192 -0.15325329 0.1341861 0.21509358 -0.23251987 0.14846234 -0.55454934 -0.2177884 0.2619728 -0.85902023 -1.0533956 0.58958256 -0.41691706 -0.24209477 0.76894796 -0.39825577 -0.37665352 0.38383317 -0.017587958 -0.06288592 -0.27565888 0.35504022 -0.027248794 0.80609 0.87102544 0.065073736 0.2150534 -0.3603214 -0.4163662 -0.39254457 0.30832228 -0.3744549 -0.13898809 0.17114739 -0.22794783 -0.041619197 -0.4766052 -0.07468463 -0.26147038 0.52292526 0.5520945 0.023957951 0.07019747 -0.2548283 0.16266812 0.35443786 -0.74484944 -0.415394 -0.0019233235 0.20160486 -0.21723115 0.18194602 -0.08635866 -0.34516713 0.19684449 -0.11709886 -0.664842 0.75288063 0.6709604 -0.10919164 -0.50646365 0.008656524
288 -0.023221627 0.23219314 -0.99980557 1.0080383 0.078172766 0.040920746 0.72574574 -0.204443 -0.12200896 -0.5455985 -0.5208595 -0.714357 0.41954216 0.43219793 -0.23500465 0.17520659 -0.4655018 0.09784903 -0.10020654 0.5816257 -0.20905752 0.014445136 -0.84584725 0.32607645 0.55499715 0.029333146 -0.11064331 0.3548451 -0.74527943 0.8063347 -0.14946717 0.40151548 -0.32178032 0.10531707 0.46333355 -0.12615605 -0.26480895 -0.79500264 -0.0930086 0.539506 -0.6111919 0.043180846 0.5011566 0.31644112 0.14731358 0.08178608 -0.40565723 -0.48418194 -0.76456213 0.47208035 0.42014095 -0.45553997 0.7471524 -0.54742724 0.51973224 -0.07681442 -0.41759527 -0.044250306 -0.22961847 0.29725903 0.37538302 -0.063818194 0.5937118 -0.3663822 -0.04885189 0.4716117 -0.20129295 -0.73855525 -0.23724282 -0.11671793 0.29742146 0.034432743 0.15726608 -0.025225956 -0.3842733 0.2563549 0.07353145 0.42767608 0.19362064 0.50100124 0.4677991 0.13663694 0.3555332 0.45662978 -0.9174272 0.14584099 0.059709266 0.46360022 0.14106902 -0.012577892 -0.20487955 -0.43067604 0.29100645 0.47218478 -0.3614133 -0.34499457 0.174794 0.22835979 -0.19462314 -0.111605465
591 0.027169168 -0.2817711 -0.36867225 -0.445948 -0.0146195125 0.010141557 0.27701187 -0.19454165 0.062181477 -0.04504667 -0.22571428 -0.577473 0.7272036 0.022034101 0.0048606996 0.08779662 -0.198774 -0.046040576 -0.09776955 0.17406777 -0.3045099 -0.3699514 -0.56854886 0.5019519 0.6347546 -0.67807466 0.16837816 0.47081533 -0.34688157 0.2886164 -0.8711936 -0.23837166 -0.046721764 0.13860694 0.26847228 0.10189129 -0.47496128 -0.13038285 -0.10954732 0.4713186 0.6242596 0.53610724 -0.24451737 0.31528363 -0.14593567 0.45308122 0.48187435 0.17449975 -0.42271027 0.5267832 -0.003720004 0.0995973 1.0049328 0.12608485 0.02753176 -0.09432158 0.114374064 -0.6194878 0.048186887 0.45707923 0.37061706 -0.20152308 0.3107741 0.22015871 0.21908316 0.31821275 -0.16576369 -0.6488066 0.07871495 -0.8033754 0.8181373 -0.29892197 -0.18509495 -0.3437507 -0.27781057 0.5364055 -0.72212553 0.37551206 0.07889132 0.8550705 -0.32308578 0.028828742 0.26584846 0.91224265 0.0668612 -0.42176992 0.05930814 -0.10024293 -0.24896728 0.3554724 0.26413935 0.029771296 -0.54434127 0.05666854 -0.1988772 -0.295161 0.3278907 0.5372798 0.008569504 0.18257421
618 -0.2879596 -0.29912636 -0.60002446 0.42120907 -0.60929847 -0.09064586 0.22811197 0.077980325 -0.7140925 0.048027944 -0.7433404 -0.4028858 0.3842717 -0.048081 0.16767494 0.039669808 -0.7869822 -0.39764437 0.4916736 0.64985895 -0.09288652 0.08630637 -1.022392 0.09473842 0.31194526 -0.6980752 -0.03341841 -0.04719966 0.04025158 0.35713914 -0.95134 0.3177916 0.04961743 -0.2802811 0.7078022 -0.07554129 -0.021100562 -0.064692184 0.04442446 0.40724817 0.1949021 -0.031940073 -0.4628456 1.1301055 0.14813985 0.5285144 -0.41332403 -0.47459203 -0.15738818 -0.5264679 0.1495529 -0.37741593 0.24991918 -0.105664335 0.2718584 0.10973552 -0.22412154 -0.26926556 0.033774268 0.37348545 0.3504005 -0.07680961 0.29927334 0.189933 0.34332046 0.19372964 -0.5911776 -0.914862 -0.18678363 -0.24254501 0.052144364 0.07602047 -0.21583192 0.19666883 0.34057993 -0.5278467 -0.42412463 -0.041919984 -0.6191011 0.44646385 0.5402623 -0.29914436 0.036429603 0.4333019 0.061989762 -0.48387685 -0.027899433 0.0026345968 -0.2255696 0.43389034 0.12076451 -0.26292965 0.7883367 -0.15794642 -0.33570406 0.5757167 0.53156835 0.6810221 -0.48848945 -0.7558985
240 0.35336006 -0.68246806 -0.21201465 0.28016925 0.13390829 -0.09037651 0.73585594 -0.4443507 0.3021878 -0.55447376 0.3730812 -0.5352201 0.055664502 0.122957185 -0.30706465 0.86184365 -0.40321448 -0.08605931 0.33231068 0.020199804 0.3480298 0.5273999 -0.024298906 0.32513925 0.032709517 -0.40342617 -0.34949568 0.08725973 -0.48965472 0.27680504 -0.38970888 0.21573661 -0.49077684 -0.28715104 0.13691382 0.21911727 0.009001613 -0.33871228 -0.28445777 0.2741264 0.07886114 -0.2086354 -0.33184966 0.2655288 -0.27964804 0.9267529 0.4255872 -0.3824832 -0.20244114 -0.21031816 0.27148986 -0.6050205 0.70527005 -0.50365525 -0.20319726 -0.51955765 0.0075644385 -0.277444 0.011341353 0.6948083 0.23298638 -0.034534052 0.8353842 -0.22318906 0.17803356 0.40865287 -0.7280615 -0.30755168 -0.49675503 0.22729084 -0.19953045 0.0012589252 -0.7884735 0.0846098 0.3403303 -0.59542686 -0.43465948 0.10841659 -0.42374274 0.596293 -0.13193092 0.6905004 0.0040135933 0.06837556 -0.28764215 -0.50384057 -0.31669518 0.36644736 0.17023945 0.35050082 -0.4296188 -0.7452439 -0.44041812 -0.2572612 -0.08934774 0.16966072 0.1438611 0.017821433 0.13318287 -0.49357057
491 -0.16718182 -0.73986274 -0.8960805 0.42902374 -0.42629027 0.34946126 0.26523593 -0.6463306 -0.10724719 -0.34071797 -0.13539582 0.2307851 -0.52174157 0.30629665 0.4148791 0.47841313 -0.27633244 0.4558722 -0.26711577 0.36810008 0.7357397 -0.11333232 -0.60787296 -0.10459348 0.74364036 -0.25040948 -0.92693365 -0.49060783 0.08061991 0.14057204 -0.5814799 0.6353772 -0.040815502 0.4107626 -0.2147082 -0.111569926 0.029754695 -0.15030435 0.85225475 -0.1294217 0.64441854 -0.6401732 -0.0073925676 -0.031152053 -0.0008944089 0.2503794 0.25184783 -0.3382744 0.2757345 -0.14721629 0.34846285 -0.35813683 0.5819635 -0.80803084 -0.055901047 -0.11818042 0.049297094 -0.9607367 -0.35414797 0.31144124 0.17456599 0.09240021 0.39893544 0.29909152 0.32769164 -0.11456368 -0.44400692 -0.27861068 0.362856 -0.45192838 0.18227044 -0.33498976 -0.63384527 0.24928531 -0.008781264 0.033931915 -0.43602586 0.4705212 -0.14306433 0.742958 0.4937781 -0.14113845 0.25318554 0.23855545 -0.18767963 -0.48897576 0.3207147 0.13044973 -0.34816366 0.63208896 0.51250744 -0.034253754 0.48502454 -0.24907224 -0.1521708 0.09067448 0.83577317 -0.10528772 -0.09073861 0.31196457
521 -0.347735 0.018935477 0.118841596 0.40381384 0.45562232 0.81193143 0.29391393 0.32280254 -0.56806916 -0.44726956 -0.19391966 -0.62681156 -0.26868266 0.13906132 0.39289004 0.30105868 -0.08638095 -0.10132164 0.2866022 -0.27436978 -0.076011285 -0.20460668 -0.5684 -0.6326839 0.61371684 -0.011507164 -0.09162612 0.45618466 -0.3429661 0.79390645 -0.40222088 0.20218027 -0.44536027 0.023535173 -0.3916945 0.76995426 0.31411576 -0.18848659 0.5415608 0.8296374 0.372907 0.2429399 -0.6312552 0.3124527 0.11680599 0.3411451 -0.49545178 -0.6845138 -0.9110676 0.01925983 0.5971991 -0.4092464 0.3394003 0.12643218 -0.09590968 0.104411624 0.09557858 -0.41450456 -0.36625853 0.64678067 -0.2500056 0.42993715 0.23421605 -0.044746146 0.63007903 0.26218492 0.0055070426 -0.26883075 0.25676477 -0.37472484 0.3260452 -0.069037996 -0.76857704 0.50862783 -0.20397466 0.30347517 -0.4472861 0.031266455 -0.28255877 0.027926154 0.07200146 -0.06638696 0.07945839 0.25196314 0.08782306 -0.25831625 0.07689021 0.25876692 0.1723462 0.01567079 -0.33727604 -0.15236993 -0.28160113 0.11692 -0.041090306 0.3161579 0.63195074 -0.4180986 -0.2593755 -0.06809213
601 -0.6988102 -0.2735017 -0.10636066 0.046306707 0.04263346 0.3740173 0.32264757 0.30293664 0.15942031 0.1406316 -0.032088295 -0.24700688 0.33939835 0.42511734 -0.45778373 -0.3650283 -0.13336137 0.36462957 -0.15955323 0.5917138 0.042527147 0.041409962 0.27956143 0.32942513 0.75664335 0.33980283 0.06317518 -0.6131344 -0.33395445 0.3402938 -0.4697506 -0.12754595 -0.25144494 0.17574202 -0.023331175 0.8561654 -0.01749711 -0.032571908 0.19425514 0.602979 -0.44368798 -0.41855964 -0.20953882 0.59763366 -0.025779514 0.56815386 -0.164013 -0.60228163 -0.32345903 0.3784276 0.18116517 0.16264926 0.5642117 -0.71135145 -0.0042521446 0.05425902 -0.2121067 -0.36142433 -0.57343006 0.34790695 -0.24049601 -0.071475 0.28921148 0.13216802 0.43647683 0.1278672 -0.60086906 -0.7062407 -0.36223066 -0.011474157 0.2876363 -0.28484243 -0.14583635 0.35578126 -0.40976194 0.37484372 -0.19019306 0.1352192 -0.2565907 -0.5680601 -0.006650914 0.10144674 0.003210274 0.3328243 -0.19894047 -0.009416073 -0.19705679 -0.34477895 -0.21295382 0.3609682 0.45380586 -0.16341692 -0.37416178 0.261824 -0.12838238 0.6151512 0.31416082 0.11588948 0.14027047 0.16771637
578 -0.35673624 -0.32760853 -0.42823157 0.6039553 -0.089293204 0.41194597 -0.09087814 -0.5502552 -0.08586371 -0.5407274 -0.038389545 -0.47473246 0.5038489 0.03105565 0.23294033 0.7359908 0.06673895 -0.68283015 0.14129028 0.4928875 -0.15797426 0.03858462 -0.47343507 0.1614969 0.47494897 0.34401926 -0.530937 -0.35044152 -0.27209514 0.44099015 0.22168308 -0.1251201 0.26848596 -0.03797393 -0.23560444 0.059768926 0.43798715 -0.5927221 -0.42946628 0.44061068 -0.2913992 0.100524604 0.1996369 0.5098369 -0.31531933 -0.17825796 0.26978287 -0.4155442 -0.8395018 0.17780055 0.7872484 -0.7095919 0.54755926 -0.5965104 -0.26580614 -0.18407086 0.1626405 -0.13281482 -0.66256785 0.41987407 0.29736272 0.513495 0.25879994 0.15363468 -0.0126108695 0.26940882 -0.09716108 -0.39321288 -0.67672133 -0.27826327 0.5836853 -0.0069903126 0.04635109 0.6707757 0.22718191 -0.124088846 -0.7346 0.94023347 0.47682267 0.29260966 0.27452558 -0.45805332 -0.2848469 0.19106425 -0.49819404 -0.08239794 -0.13277672 0.29612774 -0.16927144 0.73932093 0.35184863 -0.51608276 -0.19385652 -0.34126362 -0.47357735 -0.30366713 -0.4015737 0.20670374 0.0072820615 0.12801555
343 -0.0663544 -0.2948096 -0.69837767 0.6955202 -0.26819384 0.2748256 0.28225148 -0.264391 -0.20089522 -0.5715616 -0.23271084 -0.5224578 0.64467704 0.011122262 -0.07812145 0.41691452 -0.065711826 -0.3783573 -0.12867624 0.73874074 -0.2159691 -0.23590066 -0.6375981 0.0067350515 0.5754305 -0.101283304 -0.21172453 -0.29709008 -0.5685128 0.7506038 0.023291828 0.22669838 -0.07343632 0.22811355 -0.05254615 -0.07173037 -0.018700488 -0.47580215 -0.3908661 0.15310822 -0.53038114 0.41762108 0.5084544 0.09194964 -0.093818605 -0.32136068 -0.28742635 -0.36012828 -0.6016702 0.06100317 0.6207624 -0.47241774 0.7892046 -0.52780604 0.024687206 0.039058667 -0.06974355 -0.091339394 -0.51308286 0.4719501 -0.27967617 0.32808658 0.32852602 0.021380868 0.011124229 0.06515066 -0.58134896 -0.24542017 -0.20436394 -0.13374116 0.62813956 -0.03289461 0.21680087 0.35651234 0.2248981 -0.028427651 -0.47594732 0.67631125 0.5453258 0.67580324 0.6041388 -0.063021936 0.21540658 0.1566785 -0.7714064 0.17101578 -0.3393143 0.3793618 -0.31133786 0.39845803 -0.16126621 -0.21911716 -0.06922633 -0.016205758 -0.19758701 -0.46936044 -0.48530084 0.17544179 -0.111921094 0.33180663
404 -0.5276458 -0.42179936 -0.49202824 -0.046722475 -0.6267075 1.0146738 -0.049815293 -0.085805856 -0.13627985 -0.20819004 -0.29352123 -1.2122558 0.62158895 -0.11354335 0.14686455 0.45393178 -0.546661 -0.4968428 0.37124866 0.39799216 0.42963672 0.011645264 -0.20582151 0.1379532 0.24022181 0.116309844 0.004029329 0.33308166 -0.036512427 0.87069976 -1.012307 0.1968044 0.04433954 0.09122631 0.12079434 0.001636788 -0.061361797 -0.3442197 0.025626553 -0.5738931 0.22373877 -0.5135332 -0.4642805 0.33548948 -0.017236484 -0.46780232 0.16287212 0.004230595 -0.17227189 -0.05994122 0.69578594 -0.5873577 0.3342499 -0.29890937 -0.16816211 0.02224117 -0.163514 0.077455536 0.51707876 -0.118771605 -0.21773432 0.56294024 0.47733936 -0.04515236 -0.4558995 0.23108824 -0.6896895 -0.037932146 -0.058894597 0.115675986 0.35147077 0.1271517 -0.062754795 0.58971983 -0.14733629 0.0006911749 -0.6713023 0.50853246 -0.015773876 0.8063308 0.1250587 -0.08975527 0.20424423 0.24922527 -0.042403053 -0.50739545 0.189295 -0.44415435 0.38320503 0.5367936 -0.27524883 -0.04780327 -0.46711326 -0.6624889 -0.18753351 0.2509537 0.14521287 0.14697368 0.4701655 0.35396853
223 -0.040526275 -0.23960571 -0.13387416 0.39561206 0.6681758 0.7517462 -0.12629892 -0.10150476 -0.6081953 -0.54788315 -0.13771103 -0.41271597 0.087623164 -0.33729938 -0.0046653454 0.2525588 -0.014762658 -0.01788515 0.25415182 0.36910897 0.11829278 -0.062109157 -0.8658001 -0.2874062 0.6678985 -0.4429686 -0.29571936 0.6217661 -0.49020955 0.5415507 -0.25509614 0.35495746 -0.3983989 0.16617502 0.20542808 0.75595355 0.3373875 -0.22047046 0.13662685 0.27396566 0.026299316 0.21709938 -0.9668048 0.38974896 -0.30478358 0.45408714 0.20777671 -0.6895745 -0.68918705 -0.18753783 0.5445086 0.110236764 0.23479056 0.39331734 0.032248076 0.16327949 0.15396795 -0.26886052 0.040556096 0.82366806 -0.028561654 0.18057005 1.0818944 -0.54794395 0.6941304 0.49004197 0.43993935 -0.79386234 -0.046142645 -0.31033146 0.23736587 0.0047676307 -0.39492652 0.39544493 -0.048633736 0.17664433 -0.7494579 0.26979086 0.092161916 -0.23764381 -0.00322693 -0.20805418 0.3098911 0.35945857 0.37444612 -0.29549202 -0.090165384 -0.034226004 0.27490497 0.30305675 -0.6683134 -0.0036344808 0.08691176 0.05067334 -0.052822955 0.21196371 0.84920496 -0.5088824 0.051460434 -0.086176515
605 0.1443979 0.024429398 -0.107692674 -0.15904094 0.06455441 0.20662518 0.2798052 -0.10598445 0.17613211 -0.03982822 -0.30378845 -0.41359213 0.8405639 0.16852507 -0.27122712 0.2541666 -0.20994227 -0.015580503 -0.11623295 0.08143378 -0.24508208 0.16059922 -0.8358262 0.30772972 0.54560333 -0.93539673 0.17535993 0.5396575 -0.23621024 0.108449444 -0.70336914 -0.24002236 -0.35055372 0.14585836 0.32364583 -0.30995235 -0.4589625 0.017130924 0.045407128 0.55431706 0.54639393 0.42456654 -0.010002525 0.26199698 -0.2267063 0.320601 0.31254038 -0.005110104 -0.1913188 0.30127332 0.39939588 -0.21599026 0.93639207 0.04136993 -0.212486 -0.090228215 0.08774721 -0.61573243 -0.068408884 0.2725938 0.30840555 0.09972912 0.41276875 0.30596527 0.3798636 0.3548657 -0.26895988 -0.40402487 0.31973013 -0.9205825 0.7192672 -0.19854708 -0.13372907 -0.35504833 0.04875105 0.69324005 -0.88107294 0.2872417 0.07588985 0.8106798 -0.42235538 -0.029160218 -0.033039194 1.1136472 -0.23901923 -0.4806923 0.22422992 -0.41335878 -0.22468571 0.2722492 0.1925258 -0.25413787 -0.4180793 -0.038236886 -0.08888269 -0.054696586 0.39340514 0.19225526 -0.28685495 0.17105825
352 -0.09045212 -0.34749818 -0.058460385 0.043992396 -0.105282225 0.43545654 0.3557104 -0.13004972 0.16688538 -0.35241708 -0.1384527 -0.27542782 0.009012325 0.043215424 -0.19205947 0.06328601 -0.41702175 0.0936616 -0.02209139 0.40015072 0.31117818 -0.10169523 0.4825874 -0.27196202 0.44103265 -0.35420355 -0.18883489 -0.13952388 -0.09379965 0.4176723 -0.40953663 -0.13548216 -0.1445994 -0.23473212 -0.019445935 1.2929484 0.17063043 -0.07336107 0.24882019 0.62873924 -0.4818789 -0.45207033 -0.14522518 0.29762897 -0.043741792 0.52296 -0.21071969 -0.16061726 0.13788046 -0.0053696153 0.4126437 -0.06357538 0.46591997 -0.47437072 -0.26258275 0.2520612 -0.040424924 0.060983732 0.07146841 0.53751016 0.02335663 -0.054613955 0.38364437 0.073146164 0.33078706 0.010700533 -0.6103518 -0.30688524 -0.25431842 0.21555443 0.062363308 -0.28485164 -0.22378753 0.060741343 -0.35545042 -0.024306199 -0.2186398 -0.0742138 -0.52571255 -0.35319766 -0.2648734 0.16005799 -0.30493852 0.48092163 -0.30756965 -0.033796623 0.15772249 0.5017066 -0.06049108 0.4805773 0.3485271 -0.42234954 -0.5371876 0.32748428 0.10174964 0.4219321 0.15343733 -0.03423588 -0.4669694 0.27689284
340 -0.11981841 -0.43205714 -0.6818447 0.16338581 -0.50198025 0.63006663 0.26199582 -0.12197262 -0.20617115 -0.33327997 0.08448509 0.01623224 0.33160564 -0.39573994 -0.13905886 0.18626608 -0.28101972 0.058586635 -0.023177972 0.40611047 0.29534915 0.11973292 0.028526437 -0.007302379 0.4931295 -0.623109 0.050793692 0.14793485 -0.022800062 0.16270499 -0.32047552 -0.06244339 -0.32567346 -0.25035897 0.004179511 0.1647325 -0.18210852 -0.07925271 0.022180967 0.39784855 -0.71378887 -0.35223478 -0.53370225 -0.03716782 0.06293303 0.30291954 0.19104344 0.16710185 -0.12371456 0.117783435 -0.024202907 0.28514776 0.28896984 -0.4789827 0.42049098 -0.11026035 0.015323036 -0.40640557 -0.17154734 0.3600233 0.53657174 0.08516241 1.064087 -0.3114209 0.27960682 -0.15412468 -0.9453191 -0.48226905 -0.10530022 0.09062052 0.08908332 0.0712178 -0.008525317 0.1918615 -0.4622878 -0.20741059 -0.120953314 -0.18992777 -0.43060267 0.24304362 0.18697399 0.5789987 -0.25315818 0.43827733 -0.13030425 -0.18015826 0.13095725 0.4320968 -0.18118021 0.06434142 -0.25853044 -0.32914788 -0.66493475 -0.04036124 0.29068926 -0.21094607 0.54446805 -0.07770747 -1.06146 -0.15006122
436 -0.18460855 -0.41713017 -0.27431196 -0.020362578 0.027835071 0.41959965 0.033471484 -0.05264216 -0.068452016 -0.11329745 -0.34620255 -0.7089018 0.22453883 0.35254645 0.22343335 0.13794738 -0.009089667 -0.3110515 -0.08891303 0.31204927 0.21854316 -0.078175545 0.08099447 -0.22747216 0.44110498 0.044720266 0.433852 -0.4119298 -0.20855804 0.26721495 -0.6016013 0.6764496 -0.13698226 -0.28854638 -0.0838168 0.21536718 -0.21362364 -0.14869885 -0.39131695 -0.67641103 -0.06438924 -0.08645165 0.15402883 0.016998094 -0.2527108 0.003656312 -0.15643385 0.18140998 -0.8255424 0.023115737 0.3963747 -0.005030753 0.3039699 -0.12380859 -0.10195961 0.17634933 0.71638924 -0.046338804 -0.074254185 0.17357525 0.24584505 0.16308792 0.7457234 -0.026537592 -0.022710187 0.36598945 -0.18432401 -0.018097516 0.058062274 -0.15726447 -0.16090804 0.01203033 0.15453191 0.34124678 0.022246823 0.31491685 -0.6897371 0.3609129 0.061118394 0.023846498 1.0913078 -0.34830025 -0.25887424 0.23773992 -0.05891578 -0.48302287 0.21720342 -0.49164814 0.5630796 0.5217645 -0.060626768 -0.6927713 -0.3953007 -0.54510707 -0.5594237 0.26836514 0.1742348 0.5070134 -0.028327946 0.1433038
603 -0.3806482 -0.42663255 -0.088659674 -0.06615277 -0.16998887 0.7677641 0.57442766 0.30214217 0.36349508 -0.1241801 -0.039434385 -0.3158809 0.3872611 0.4095665 -0.20358236 0.17282054 -0.40016353 0.17272483 -0.0005244864 0.2955162 0.04210872 -0.18379371 -0.21435869 0.062663846 0.35170704 0.14890458 -0.10502062 -0.370488 -0.1498359 0.2232021 -0.32324842 0.1041537 -0.91320044 0.4364713 -0.08133564 0.80812377 0.10939186 0.13306727 0.024824988 0.1500901 -0.37378517 -0.43705696 -0.28377384 0.20449118 -0.042749487 0.482222 -0.25977242 -0.37056476 -0.38821352 0.11294509 0.6212596 0.14866251 0.1453626 -0.28151375 -0.16325295 0.21489961 -0.057906333 -0.016189579 -0.2602712 0.3214944 0.39191565 0.1213684 0.16672598 0.40535125 -0.1471457 -0.08336974 -0.29019162 -0.35099044 0.0062060803 0.20222601 0.20970902 -0.12712815 -0.29369727 0.623606 -0.38378966 -0.12781055 -0.39309663 0.0016990748 -0.42891642 -0.38175988 0.41742268 -0.5282219 -0.30954662 0.40777877 -0.40451702 -0.14729144 -0.09013755 -0.04168161 0.15090322 0.93224686 0.67540205 0.030914605 -0.7114931 -0.031540193 -0.14583948 0.55134 -0.44850466 0.3811265 0.2596719 0.016658992
251 0.13135552 -0.5372531 -0.52682626 -0.31715828 -0.58685875 0.6269569 0.1550238 0.42497668 0.6627259 0.65420574 -0.30841258 -0.13927048 0.7086286 -0.24407859 -0.9312976 0.26345387 0.18758678 0.041901436 -0.08357328 0.63754255 -0.16533493 0.12012998 -0.93798584 0.098671064 0.31401056 0.14914781 -0.7983609 0.14391921 -0.15683907 0.11670985 -0.39687255 0.64417076 -0.54038554 0.09232009 -0.056638714 0.3946768 -0.08727794 -0.50070906 -0.45092323 0.17771071 0.25869653 0.4264276 -0.60631126 0.46114972 -0.13419734 0.69350207 -0.16694789 -0.8687659 -0.06898931 0.21524797 0.17547719 -0.109460786 0.5561746 -0.018138519 -0.8937923 -0.22958748 0.05703381 -0.7566362 -0.08234146 0.24580403 0.3638339 0.6475132 0.4088862 0.19889563 0.3149151 -0.261394 -1.009759 0.10959997 0.37042013 -0.028528465 0.5608923 0.12086696 -0.6540841 0.3840927 -0.47776607 -0.05598972 -0.63652724 0.32447106 0.1300769 0.8571051 -0.03608638 0.096800596 0.25143665 -0.10257551 -0.31776902 -0.035920713 -0.039446652 0.043812457 -0.024522403 0.56503594 -0.10636619 -0.64184076 0.2898902 -0.25087485 -0.54945517 0.5445304 0.9875982 -0.016005227 -0.49444288 -0.50125474
141 0.15054353 -0.115274996 -0.56029266 0.6442345 0.11093032 -0.21805577 0.24277617 0.12684307 0.38902113 0.33522195 0.08265355 -0.32421517 0.11688748 0.5125507 -0.0014761004 -0.49695542 -0.5834818 -0.30092248 0.18582334 0.5966672 -0.07649397 0.30514723 -0.49402723 -0.12765914 0.3419222 0.01747452 -0.14606631 0.1806802 -0.62264496 -0.64903635 -0.45558944 -0.18139659 -0.7220486 0.061333895 0.6380012 -0.024397656 0.45265436 -0.14533958 0.8785805 -0.22437735 0.29132128 0.078214616 -0.50365746 -0.36515567 -0.46292287 0.09608467 0.057366017 -0.0701728 -0.40833464 -0.07359945 0.9195654 -0.5017678 0.5171936 0.085814066 -0.19161911 0.56344235 0.14678743 -0.26036912 0.010162933 0.5342256 0.07056873 0.47250593 0.7088418 -0.29648483 0.8239246 -0.27994615 -0.82845163 -0.5113199 -0.5819644 -0.55157065 0.03587818 0.29978642 -0.07683501 0.1376796 -0.6889871 0.15206723 -0.7487804 1.000147 -0.4395931 0.4830067 0.2425753 0.4404281 0.61719656 0.3456237 -0.19917361 -0.6117343 0.25067022 0.023774473 0.3407612 0.5222853 0.22419913 -0.54328877 -0.007250212 -0.40434122 -0.3304769 0.065046236 0.58513856 0.070603244 -0.3628683 -0.6985046
597 -0.34419 -0.55633116 -0.3645359 -0.14851558 -0.31714073 0.8465865 0.46267253 0.25281402 0.39897367 -0.20908315 -0.32968622 -0.6132371 0.43329892 0.32138237 -0.34521118 0.20245776 -0.4873624 0.2934731 -0.033439256 0.6956802 -0.047260847 0.08265572 -0.03394104 -0.30977598 0.08240879 0.106087044 -0.04594643 -0.2894491 -0.21269558 0.46770722 -0.36932525 0.32043844 -0.65031344 0.23381507 0.03554299 0.5199914 0.12393495 0.086645626 -0.36281133 -0.11700525 -0.03761226 -0.21894449 -0.23145607 -0.12942234 -0.037940502 0.47704783 -0.3837001 -0.3013532 -0.41353837 0.2511043 0.23125276 0.11429848 0.050054338 -0.024616815 -0.3250391 -0.14844404 0.35052654 -0.056575682 -0.31274286 0.18882918 0.2512707 0.40678918 0.13710032 0.59875417 -0.21719116 0.035368484 -0.36816952 0.07344359 0.007257141 -0.070711665 0.10648165 -0.11337244 -0.34859416 0.57190114 -0.092103355 0.44311744 -0.2582224 0.46760547 -0.15331198 0.08211284 0.6543792 -0.3913542 -0.43280938 0.16772287 -0.09920692 -0.39185286 -0.06317046 -0.53652567 0.3366218 1.1610752 0.43018094 0.0014718572 -0.4215573 -0.35823843 -0.06610882 0.3834833 -0.12534943 0.25896087 0.2812435 -0.03155625
563 0.23616816 -0.8936308 -0.06652368 0.43409452 0.09749681 0.36550167 0.44832325 -0.44278714 -0.028641405 -0.5441317 0.27695853 -0.4761367 -0.1282499 0.18467574 -0.24246272 0.45981005 -0.4083797 -0.19060463 0.5490275 0.24068226 0.5785418 0.47361192 0.17994294 0.17467871 0.026680926 -0.50522476 0.08078422 0.059490636 -0.29709986 0.3381323 -0.48390347 -0.099068135 -0.38415638 -0.3593267 0.20577754 0.20878567 -0.31063047 -0.33462885 -0.18279171 0.16443394 0.025701618 -0.40950003 -0.1994134 -9.2755996e-05 -0.2642998 0.93821174 0.2827651 -0.2036522 -0.07465173 -0.149317 -0.18733118 -0.28316662 0.6682409 -0.41787335 0.040943824 -0.1960834 -0.12655059 -0.4558335 0.2589392 0.7156998 0.39292988 0.06306557 1.0441277 -0.15191117 0.43894717 0.13757597 -0.521425 -0.26792794 -0.4439211 0.30634347 -0.033236306 -0.03844108 -0.48267382 0.21741687 0.1147364 -0.41849872 -0.1674037 0.18974046 -0.503792 0.17660283 -0.23601452 0.481314 -0.20266053 0.1328326 -0.32305187 -0.03870507 -0.15307015 0.5048404 -0.051215924 0.3379207 -0.21671264 -0.76836157 -0.47487834 0.048010617 0.1309014 0.080152005 -0.06239493 -0.034366276 -0.037231516 -0.37319067
299 0.32236162 -0.92636395 -0.090857476 0.64755505 -0.057529744 0.57032996 -0.016944721 -0.28589472 0.26849794 -0.35231525 -0.32867694 -0.8407117 -0.1257971 0.09167468 -0.12014355 -0.016679924 -0.45534202 -0.28916427 0.40951377 0.25585794 0.6895183 0.2371736 -0.44718167 0.21636099 0.12344202 0.10884563 0.034168877 0.19517164 -0.4676126 0.70209104 -0.41193938 0.3222253 -0.31989628 0.011673844 0.3116287 -0.22231658 -0.61030924 -0.4098573 -0.31378284 -0.10240117 0.66529435 -0.53998214 -0.3973001 0.25823516 -0.7074278 0.8080364 0.13285421 -0.19425935 -0.51046014 -0.3926587 0.027778633 -0.62387156 0.61329716 -0.59978575 -0.6523392 0.17422001 0.10985944 -1.0906065 0.14616556 0.42287785 0.18808468 0.065916635 1.061254 -0.20114698 0.8162942 -0.08690526 -0.71563596 -0.45639038 -0.3459147 -0.24779482 0.2365151 0.17355192 -0.59600365 -0.39438418 -0.00096680934 -0.25726083 -0.20199662 0.14718714 -0.16295232 0.25997472 -0.20871603 0.13727771 0.31166065 0.31739417 -0.20879555 0.17501949 -0.36121273 0.7255778 -0.16609986 0.16216084 0.25774068 -0.124463156 0.1609654 -0.07737874 0.33103755 -0.07371747 -0.20861018 0.09641613 0.011723017 -0.3671605
548 -0.50010717 -0.2636239 0.3010449 0.7186542 0.24322316 0.49653417 0.5863558 0.24469697 -0.38757598 -0.7034977 -0.38351735 -0.8165189 -0.10465022 0.25386554 0.6138571 0.31718615 -0.40605286 -0.13494076 0.24397877 -0.39190954 -0.076081865 -0.014900787 -0.97611004 -0.2362944 0.8457138 0.059539616 0.16747698 0.18943278 -0.7911577 0.6898026 -0.34573448 0.35681754 -0.1571648 -0.26048347 -0.3860964 0.19027936 0.044573884 -0.33594012 0.7970962 0.7821941 0.38874462 -0.14821199 -0.39525175 0.77085274 -0.12742026 0.45003754 -0.35528263 -0.8131272 -0.8085951 0.23940727 0.6325198 -0.82570624 0.5866397 -0.3448565 -0.09289946 0.19021893 0.1439266 -0.34794235 -0.43857744 0.22413899 -0.3789774 0.9075275 0.31768206 -0.13837992 0.64077985 0.37501413 0.17523453 0.026309751 0.034839932 -0.5417702 0.35917285 -0.11549426 -0.7122802 0.39918688 -0.17047627 0.19372587 -0.25453007 0.10853189 -0.57574344 0.21616022 0.20913789 -0.10128881 0.18934925 -0.097102135 -0.001924315 -0.0973477 0.059046503 0.39130047 -0.14892142 -0.33301988 -0.5743544 -0.40765458 -0.42230725 -0.4403185 -0.32475558 0.27275977 0.62660056 -0.0790087 -0.4261841 -0.08397689
300 -0.26742148 -0.8385691 -0.9021825 0.24823156 -0.7127125 0.65070254 0.5371074 0.47287008 -0.29293612 0.06451578 -0.07202761 -0.08218984 0.8181646 -0.6490047 -0.28345203 -0.077045344 -0.5428384 0.21455969 -0.17254469 -0.20796607 0.089796074 -0.19807307 -0.35131598 -0.11312128 0.67230636 -0.25953376 0.14651681 0.38561416 -0.0126732625 0.090740725 -0.18384948 0.123475894 -0.09115157 -0.34030282 0.32486972 0.07496615 -0.36239785 -0.11509812 0.16430137 0.10462768 -0.50616753 -0.4158749 -0.74517375 -0.051760174 -0.019212373 0.16821466 0.38913026 0.0041813515 -0.28676796 -0.14079805 0.22932643 0.29050225 0.5071858 -0.7415923 0.4044172 0.06699119 0.09954356 -0.66009915 -0.3670537 0.40916383 0.24212769 0.2304617 0.6823348 -0.1603629 -0.03211448 -0.11154118 -0.8963964 -0.69484407 -0.2327452 -0.05224013 0.29240197 0.3993786 0.24756387 0.15154749 -0.1158968 0.26420993 -0.54107803 -0.12283525 -0.20174658 0.69284123 0.3799248 0.686699 0.06066095 0.28359327 -0.19935699 0.026029091 0.29368484 0.47824073 0.5226343 -0.097331926 -0.3158769 -0.52518255 -0.1171057 -0.021207916 0.26849225 -0.11267362 0.7780624 0.1609096 -0.9671393 -0.20797324
229 -0.3173366 -0.56229687 -0.14432715 -0.12303125 -0.08436111 0.07719997 0.32328638 -0.45111877 -0.24757107 -0.20308673 -0.06768268 -0.19135256 0.063964225 0.20002322 -0.5531658 -0.29608268 -0.20247772 0.2653428 -0.4575198 0.8387884 0.13426161 0.27004203 0.24313496 0.070063226 0.6570893 0.5932688 0.18509941 -0.68327636 -0.38272944 0.3548859 -0.73366797 -0.30902436 0.34783778 -0.2184891 -0.13303375 0.7261245 -0.19938119 -0.25332192 0.2484052 0.003460217 -0.25072315 -0.19791372 -0.5828483 0.64854777 0.012591516 0.29299143 -0.0672428 -0.8559922 -0.67851853 0.09622262 0.16277331 -0.2160556 0.6420524 -0.30363995 0.2784729 0.16493095 -0.1730741 -0.53947616 -0.76900333 0.40528262 -0.33497024 0.47505265 0.418981 -0.233691 0.3671448 0.4259602 -0.5742674 -0.96093416 -0.26522064 -0.14987141 0.38319853 0.13592677 -0.30284616 0.030227093 -0.51033884 0.25590718 -0.51921725 -0.07109873 -0.24811803 0.12947147 -0.03437554 0.31691518 0.69152737 0.15891723 -0.30379745 0.15996733 -0.22215675 -0.24772456 -0.278671 0.25227997 0.5224766 0.12807597 0.24266349 -0.34938046 -0.5992834 0.7861507 0.43199888 0.39311084 -0.07864998 0.013528855
363 -0.0045830454 -0.35408926 -0.4618749 -0.29776257 -0.4356263 0.30210215 0.05331459 -0.18883969 0.17733078 -0.33123234 -0.12959868 -0.43180728 0.39732534 0.3942043 0.13817543 -0.31349435 -0.14772843 -0.25007775 0.16093849 0.49975175 0.3712891 0.09960588 0.08711417 -0.4530248 0.7793368 -0.86161196 -0.27270362 -0.008805734 -0.1293446 -0.0044885417 -0.14008702 0.39230883 -0.10385954 -0.11009049 -0.1430424 0.8473714 0.13081338 0.3467689 0.2770264 0.873268 -0.18587574 -0.21593682 -0.5060144 0.12569359 -0.058083244 -0.16015421 0.2003426 -0.6440757 0.05104471 -0.09643044 -0.049239837 -0.26943862 0.70110023 -0.6049101 -0.64649725 0.7629157 0.18808465 0.3198621 0.51395214 0.54159963 -0.024650564 0.24824041 0.20597145 0.27339336 0.6950817 0.09279029 -0.6261218 -0.31904888 -0.2924471 0.121548474 0.62556696 -0.44790486 -0.4775103 -0.15259403 -0.24829735 0.3514241 -0.5241931 0.4406213 -0.4478253 -0.18711208 0.1627145 0.06305574 -0.28342405 0.5806497 -0.5513942 -0.21092202 -0.42600772 0.5132689 -0.4046643 0.43487826 0.52093285 -0.7413549 -0.42036057 0.2941108 0.21302444 0.20998421 0.66654205 -0.093929015 -0.6069506 0.31297606
599 -0.114055246 -0.74410397 -0.7782546 -0.17423306 -0.43012875 0.4991905 -0.040544327 0.2568879 0.37153038 -0.5010472 -0.35788128 -0.8908807 0.34792838 0.0019955435 0.07732876 -0.00081708335 -0.9672659 -0.18911313 -0.56066734 0.33042282 -0.25973627 0.17781274 -0.34805366 0.055553008 0.82910144 -0.07196181 0.49171555 0.25129393 0.008045739 -0.10536056 -0.6562592 1.115834 -0.84964216 -0.01570122 -0.18327487 -0.0017859568 -0.14784946 -0.3875939 -0.50534374 -0.103196755 0.031354148 0.16816248 -0.153925 -0.25906184 -0.10397083 -0.31499836 -0.4142222 -0.6297438 -0.6640794 0.23761813 0.65342665 -0.273553 0.47375053 -0.054004375 -0.005095121 -0.38423535 0.13881828 -0.092121884 0.1521844 0.4774867 -0.02908946 0.8268893 0.79795295 0.35133374 0.19157295 -0.32873887 -0.1294685 -0.14439884 -0.56390905 -0.29671103 -0.41631678 0.030458372 0.021364886 0.4495011 0.159402 0.19263762 -0.49150506 0.18431425 0.40313932 0.27576473 -0.18900327 0.18541904 -0.018210286 -0.04315608 0.10219205 0.01680816 0.3856147 -0.13847154 -0.23090135 0.74797255 0.13236652 0.006149869 -0.477925 -0.12243279 0.09762107 -0.095119566 0.21099871 -0.040807463 0.10219417 -0.1525452
180 -0.0041347644 -0.2036226 -0.3409693 0.5884091 -0.010607792 0.52234435 0.30095527 0.16406599 0.5450636 -0.1273245 -0.5178493 0.036011387 0.46559432 -0.31467235 -0.04032848 -0.34411764 0.33779123 0.045705095 -0.23878439 0.12775946 -0.12893468 0.12231951 -0.59805346 0.08881081 0.8684621 -0.8845287 -0.86742234 0.21419503 -0.09575907 0.5433978 -0.72342473 0.13157213 -0.029353032 -0.07228305 0.1777648 -0.360281 -0.12776138 -0.65390086 0.1711112 0.5111641 -0.63192546 -0.08851584 -1.0848191 0.80030924 -0.38050354 0.19815318 0.2189263 -0.7911633 -0.52436936 -0.83491975 0.45674422 -0.036553126 0.19693536 -0.28759426 -0.15665455 0.4259927 0.39178193 -0.2617735 0.10892878 0.17622513 0.67571837 0.23556066 1.0291572 -0.17342505 0.5338176 0.5735319 0.19077528 -0.40692195 -0.39567995 -0.3424447 0.3106678 -0.06302823 -0.2011832 0.36774778 -0.21823879 0.14863782 -0.66292447 0.8606274 0.0928531 0.033094384 0.13632669 -0.5127769 0.112605214 -0.18536346 -0.20172752 -0.08139787 0.42907876 -0.37685612 0.4023184 0.47107744 0.055943087 -0.23788999 -0.2812082 -0.4146985 0.4613644 0.4272531 0.6930154 -0.35508877 0.2833141 -0.363359
369 0.1035373 -0.41979125 -0.5051718 0.5997897 -0.46515268 0.59635013 0.16724071 0.16331841 0.5073096 -0.5566402 -0.36551228 -0.67085433 1.0140845 0.08172539 0.23000126 0.2633705 -0.15246454 0.44176838 -0.14889085 -0.101229936 0.07553797 0.016548187 -0.6323689 0.13042946 0.57095534 -0.8039221 -0.13687104 0.2581075 0.66787684 0.0053724563 -0.5292703 -0.19115554 -0.3776964 -0.045425326 -0.0427403 -0.34881994 0.16950202 -0.25998998 0.6257967 0.5323531 0.32240424 0.20300148 0.01979863 0.06077225 -0.5535684 0.2897845 0.16625945 -0.26122373 -0.35997847 0.27721387 0.5944808 -0.34475735 0.88949597 -0.1667375 -0.47510657 0.3333032 -0.48648018 0.0393228 -0.7854567 0.28361896 0.13746929 -0.29832363 0.4680132 -0.0007152994 0.565902 0.1952978 0.012333254 -0.542885 0.084578805 -0.85692835 0.39601365 -0.7010334 -0.5411992 -0.1696811 -0.3158658 0.29182544 -0.7644071 0.04583688 -0.086816564 0.9642573 -0.01876298 -0.47148597 -0.08073409 1.0129167 -0.31812078 -0.20870613 0.17533012 -0.10647241 0.015413283 -0.0083252685 0.10315811 -0.30284354 -0.40005118 -0.6498432 -0.3187491 -0.18916783 0.4086658 0.37565705 -0.22475752 -0.5423659
466 -0.3843979 -0.64402646 -0.5089654 0.0031321351 -0.41766116 0.4955509 0.6860992 -0.44400778 0.029122759 -0.10101992 0.08565253 0.10562248 0.12118834 -0.33163515 0.6499848 0.0032933084 -0.70467985 -0.18155047 0.37526634 0.57928747 -0.3612878 0.3483127 -0.26970905 0.37442714 0.49148288 -0.35381368 -0.2894142 -0.30743644 -0.021501854 0.50136703 -0.48148412 0.15105331 -0.12216707 0.08661599 0.5005994 -0.12595943 0.06595551 -0.21436204 0.6054789 0.29963902 0.22251062 0.35925877 -0.42534715 -0.18619287 -0.6641683 0.43108088 0.18889402 -0.6851665 -0.5972221 0.31288704 -0.19659446 -0.17680268 0.60627997 -0.22414774 -0.6981019 0.15542102 0.064790234 0.039882034 -0.0062051 0.260632 0.049400676 0.7520835 0.8648734 0.7015298 -0.027857987 0.45771793 -0.20866315 -0.3934495 -0.16454396 -0.28827515 0.0013403852 0.29522702 -0.09723547 -0.032748424 -0.63552874 0.09184553 -0.6568257 0.13573125 0.47548535 -0.016556468 -0.09455079 -0.32404956 0.6740382 -0.15526387 -0.8255898 -0.86344665 -0.2701487 0.18605071 -0.14770211 -0.21119492 -0.45605853 -0.12267121 -0.12714903 -0.046860136 -0.69272745 0.68280715 0.40612927 -0.30159292 -0.16474728 -0.03517435
527 0.060957037 -0.16861081 -0.37906232 -0.48992354 0.06945992 0.2025754 0.46345735 -0.5744257 0.27183986 -0.084295414 -0.79875475 -0.16102357 0.9028319 0.24321777 -0.16597229 -0.09325882 -0.4118764 -0.3252033 0.32708427 0.030103624 -0.31309962 -0.8129223 -0.18672699 0.41504937 0.38313037 -0.24196056 0.36168692 0.3172787 -0.67403984 0.6549669 -0.7950348 -0.06962782 -0.38202196 0.4546745 -0.027646018 0.6037454 -0.5011159 -0.22021957 -0.061377537 0.31976703 0.4667379 0.61954254 -0.2844038 0.79498255 0.018635316 0.42281428 0.2764399 0.3819806 -0.36092797 0.08638373 0.20312843 -0.1427516 0.61278975 0.29914618 0.23674563 0.009516225 0.12557569 -0.46655345 0.24926613 0.47129375 0.5354682 0.12649338 0.6428728 0.24965085 0.42015383 0.45832786 -0.06076883 -0.7694792 0.24840118 -0.4989648 0.8475196 0.1257089 -0.1849462 -0.20491913 -0.4060933 0.46913365 -0.50303394 0.65411586 0.23806067 0.75652707 -0.10804548 0.21394506 0.54101616 0.20923875 -0.06431989 -0.5984981 -0.3393759 0.1869604 -0.29871953 0.54167944 0.17701328 0.13227339 -0.33820552 -0.2442444 0.03136222 -0.048287325 0.4979479 0.3984928 -0.21238412 -0.20753133
235 -0.06849306 -0.38625586 -0.03227041 -0.057376824 0.010606371 0.38534546 0.08829333 -0.36466298 0.24903855 -0.19804114 -0.5810581 -0.5086778 0.07651868 0.5316624 0.29644364 -0.088460214 0.17286934 -0.51152325 -0.29523927 0.85515666 0.10016283 0.061082132 0.04798326 -0.15897612 0.32856566 -0.90527505 -0.17762376 -0.30086178 -0.6510165 0.00850006 -0.45505318 0.73936725 -0.1457741 -0.3339376 0.33808208 0.59686756 0.39361864 -0.19131866 0.24442177 0.27016833 -0.6602331 0.26740503 -0.36676183 0.40734458 0.2337498 -0.3576766 0.0655787 -0.72121185 -0.33605635 0.16039172 0.066034056 -0.6288668 0.92502785 -0.4041716 -0.5445232 -0.04444945 -0.026671274 0.23913504 0.5355141 0.18255432 -0.011982592 -0.16544718 0.60009176 0.027141642 0.80923223 0.5738429 -0.2709021 -0.17387697 0.04980759 -0.8505919 0.49083984 -0.03684857 -0.89484245 0.26175773 -0.5831056 -0.3191226 -0.7255575 0.50367856 -0.26108325 0.11765409 -0.49774778 -0.24197246 -0.054784916 0.20464286 -0.4680416 -0.47531077 -0.18567723 0.72897685 0.18877046 0.39662778 0.5028165 -0.18170783 0.05872392 0.22612245 -0.1144953 -0.046602752 0.4174373 0.59937954 -0.43701506 -0.26906767
214 -0.044605788 -0.29003924 -0.26473677 0.36654833 0.46609014 0.70458186 -0.122536 0.034760922 -0.13049036 -0.3166365 -0.22160119 -0.15682349 0.34732366 -0.3579864 -0.056818865 0.27774987 0.090705 0.05169886 -0.06278652 0.29571062 -0.13799275 0.00027485553 -1.0069591 -0.23874801 0.719663 -0.6279179 -0.53157926 0.46332318 -0.49237484 0.6994835 -0.32227153 0.1946348 -0.34715617 0.04389217 0.4068198 0.48418936 0.41403458 -0.113968164 -0.06856063 0.39714545 -0.15553837 0.050693173 -0.96982735 0.4982621 -0.3943123 0.46937865 0.5122756 -0.6501532 -0.42261788 -0.34213275 0.7012926 0.13510102 0.22974586 -0.04263614 -0.31041735 0.08572967 0.2166433 -0.18759932 0.24517272 0.46290648 -0.028091209 0.24283051 1.0719594 -0.6189133 0.8441242 0.7185269 0.40941355 -0.7484485 -0.26008534 -0.15618639 0.39795753 -0.23567097 -0.31409326 0.3168212 -0.092773385 0.22052203 -0.7431705 0.6892654 0.13893117 -0.17238891 0.2671466 -0.091294535 0.39423755 0.21887271 0.56025827 -0.23503017 0.21437173 0.07044836 0.30009577 0.17718859 -0.64133763 -0.021929134 -0.028242186 -0.040680066 0.020451555 0.085278764 0.6497901 -0.3828057 0.29735446 0.11772114
98 0.11638032 -0.1499554 -0.32499987 0.20351459 -0.15189302 0.44581798 0.16909641 -0.18661737 0.37151223 -0.45848513 -0.34616092 -0.49593922 0.93453044 0.1635641 -0.20917563 0.31754485 -0.19920768 0.27502504 -0.2644386 0.13035603 -0.15655065 0.03325301 -0.47049224 0.32715523 0.42252374 -0.78907937 0.18373159 0.40321386 0.0004901089 0.03511722 -0.8209389 -0.47029912 -0.27383646 0.08643644 0.31863132 -0.36876762 -0.3976376 -0.18300962 0.30240226 0.45328876 0.48837504 0.21781985 0.07903891 0.11224407 -0.40524808 0.38605016 0.44934282 -0.16728622 -0.18079217 0.28087744 0.40512395 -0.36616585 1.1104704 -0.33522275 -0.35823005 -0.009435698 -0.22161405 -0.17245112 -0.5929829 0.03772076 0.2623437 -0.20834874 0.4820377 0.32873264 0.20821287 0.35855332 0.026318464 -0.5222074 0.31204984 -0.9009456 0.41442335 -0.20909819 -0.078266375 -0.32126796 -0.07931261 0.59583485 -1.0061561 0.012924652 0.056642424 0.7234571 -0.29976332 -0.33010757 0.15731607 1.2046394 -0.06653263 -0.4381435 0.1120017 -0.027979024 -0.22878692 0.20406178 0.33900532 -0.50475705 -0.43797082 -0.27587008 -0.19910413 -0.021499772 0.4214638 0.21989769 -0.25340167 -0.18445583
458 -0.27588418 -0.32403326 -0.6319936 -0.12205139 -0.42602932 1.073075 0.27891967 -0.11703836 -0.09950299 -0.4636568 -0.21800283 -1.1207982 0.31720412 -0.025358032 -0.044001516 0.26904887 -0.55393106 -0.24767691 0.17096372 0.47948784 0.20338894 0.020644527 -0.08534941 0.09203305 0.36967525 -0.12924717 0.16361868 0.02759305 -0.11180682 0.57864326 -0.4958168 0.45769387 0.08383693 0.09745028 -0.097207345 0.016393825 -0.11115844 -0.25131416 -0.13186349 -0.28720132 0.0013428017 -0.43338442 -0.43165195 0.35501152 -0.15311034 -0.43568304 -0.05743434 0.13667169 -0.3743694 -0.10121877 0.28848314 -0.20456068 0.0986251 -0.17156439 0.07856729 -0.13349207 0.0052806255 0.119162366 0.24184683 -0.16367248 -0.16768372 0.55951136 0.43946782 -0.008759101 -0.4364713 0.018100256 -0.56710356 -0.095216475 -0.17190933 -0.095536195 0.028706403 0.07398297 0.011743041 0.5509365 -0.08544859 0.17281707 -0.571769 0.5877859 0.18459022 0.66288954 0.40464604 -0.2962187 -0.0008063479 0.3088715 0.05882791 -0.6942159 0.13390233 -0.74554354 0.36163878 0.6459421 -0.080944486 -0.34808803 -0.29301268 -0.8410871 -0.103246644 0.17926577 -0.051635973 0.22294886 0.48357072 0.31364775
547 -0.052716915 -0.16718441 -0.48710722 -0.27930945 -0.034682613 0.20840418 0.48364288 -0.4573336 0.1831945 0.039305754 -0.5537408 -0.23584704 0.8796366 -0.09833113 -0.13530795 -0.18905854 -0.36794057 0.053012144 0.036313668 0.14824967 -0.42075032 -0.70605314 -0.34528327 0.394474 0.67214465 -0.36619768 0.30380172 0.30463117 -0.48021063 0.6105311 -0.7794642 -0.0058094272 -0.32691374 0.43224213 0.08320552 0.27148876 -0.50508547 -0.025820162 0.044020165 0.34887677 0.51679707 0.51990664 -0.34839344 0.6326682 -0.03561172 0.26456755 0.32359448 0.43147397 -0.23192717 0.17407618 -0.05954456 -0.009568995 0.79659075 0.13173622 0.260488 -0.10221387 0.3327008 -0.7732471 0.06790727 0.4281271 0.6686306 0.09802652 0.28313723 0.119842105 0.30665028 0.27400652 -0.20751944 -0.749224 0.26093405 -0.64436525 0.8219329 -0.03807108 0.00015901797 -0.3217097 -0.36698738 0.61263496 -0.77611345 0.54552865 0.20577714 0.8767084 -0.3240997 -0.09617433 0.2936833 0.52804756 -0.009076572 -0.5308215 0.03597348 0.015224466 -0.16032133 0.51883703 0.30297318 0.19779739 -0.30807444 0.043606114 -0.37708384 -0.22498566 0.3739081 0.4725646 -0.48657468 -0.07240313
449 -0.17870656 -0.6021367 -0.2984763 0.4512583 -0.40959865 0.64617777 0.008104858 -0.51833016 0.12558109 -0.7716952 -0.33089575 -0.65306944 0.48380736 0.02461243 -0.19441113 0.0651729 -0.49644268 0.24224433 0.0072584036 0.43412817 0.12319404 -0.09500882 0.005359661 -0.46920305 0.65878445 0.36425525 0.13471077 0.10229186 -0.3605169 0.015818728 -0.2996739 0.52191406 -0.5522406 0.16046621 0.0836416 -0.01265029 0.42039293 -0.072943196 -0.32311603 -0.15571977 0.018242534 -0.005360813 -0.449341 0.18464601 -0.1933544 -0.029902792 0.24397059 -0.18359514 -0.8256047 0.18562335 0.31106183 -0.11387475 0.4752936 0.17378049 -0.036806293 0.026754314 0.32396314 0.25311756 -0.03166236 -0.38632122 0.07421396 0.6159383 0.5789522 0.08711058 -0.23045607 0.1145599 -0.6436407 0.10670896 0.30316463 -0.13059415 -0.17841625 0.33052427 -0.2564238 0.37792003 0.17228362 0.065128975 -0.51627254 0.52228564 -0.0070297453 0.34316814 0.6859844 -0.54710096 -0.23684855 0.25579378 0.0056990515 -0.096157305 0.14812051 -0.6029091 -0.09957547 0.8446427 0.041381083 -0.24414916 -0.122275524 -0.49515447 -0.25415868 0.36990187 0.045079816 0.7010234 0.36523718 -0.16519378
67 -0.3074976 -0.56632537 -0.4631722 0.5476124 -0.063555636 0.30102468 0.18845536 -0.5370283 -0.009067437 -0.26132843 0.25145268 -0.05734713 0.35610178 -0.13513248 -0.5276568 0.3952372 -0.08821161 -0.52290183 0.24443868 0.6256535 -0.07927338 -0.16030486 0.48096478 -0.031624947 0.6972027 -0.5416103 -0.26663953 -0.03275969 -0.0036121893 0.1613217 -0.6352183 -0.09645339 -0.45215395 -0.63220406 -0.116922975 0.54056257 -0.19214712 -0.22298662 0.12601168 0.59820116 -0.11449181 -0.36447605 -0.27158844 0.13485692 -0.17821819 0.31100434 0.3057266 0.13991116 -0.1668188 0.20902531 0.30571184 -0.37451106 0.2533878 0.09511915 0.3580028 -0.33686233 0.15832716 -0.05263322 0.3863123 0.51029164 0.15497649 0.012043091 1.3646626 -0.12647267 0.6310318 0.13209683 -0.832609 -0.3806261 0.23745932 0.37560418 -0.029880416 -0.25578344 -0.12293123 0.057837997 -0.30216196 -0.30821258 0.20140462 0.16110648 -0.60197425 0.095644146 -0.31412688 0.2246228 0.22558945 0.2811921 -0.5036025 -0.24580614 0.46673387 0.60006183 -0.22551902 0.17085817 -0.030288558 -0.63720286 -0.44494614 -0.26312584 -0.09188329 -0.15386675 -0.17022029 0.19729048 -0.4112334 -0.09205717
581 -0.30940282 -0.6409245 -0.6429648 0.3800869 -0.4393318 0.6011972 0.43183517 0.30397794 -0.018440373 -0.3494209 0.104848795 -0.08450476 0.55505466 -0.7650828 -0.2501478 0.219049 -0.7243942 0.142461 -0.23809287 0.23045182 0.120989054 -0.088249885 -0.26570642 0.040140413 0.6801079 -0.5528086 0.032319922 -0.02312491 -0.1876275 0.3059176 -0.1419753 0.04124876 -0.34193605 -0.35223857 0.20829551 0.24294439 -0.2220979 -0.074842356 0.06901404 0.046917878 -0.6876591 -0.46202204 -0.53762037 -0.18631747 -0.0048876177 0.3568135 0.40326118 0.050399598 -0.25466302 -0.06662234 -0.021697327 0.321666 0.49261683 -0.37776467 0.3586105 0.06018158 0.22343406 -0.63414115 -0.20516542 0.4057467 0.34843573 0.11205988 0.7973317 -0.10407121 0.19369042 -0.14470091 -0.86129385 -0.4800062 0.09231668 -0.17559792 0.115270674 0.20896517 0.2692652 -0.057897847 -0.19963573 -0.13994879 -0.5439573 -0.39757445 -0.5824163 0.53514165 0.31156123 0.5437884 -0.14254804 0.25574952 -0.13590573 9.510691e-05 0.37539196 0.5759575 0.11292191 0.025368042 -0.26086494 -0.6142994 -0.19533573 -0.089331165 0.32983115 -0.17565115 0.6947258 -0.1387215 -1.163481 -0.085848644
292 -0.1308619 0.24321888 0.15681851 -0.04786824 0.09900459 0.10503004 0.08374279 -0.19277887 0.12657565 -0.21610454 -0.19091785 -0.5268188 0.2513479 0.13616633 -0.3399171 0.071453996 -0.013580267 -0.19026975 0.07799252 0.17481162 0.07964056 0.20636685 -0.81687933 0.5609669 0.7841918 -0.30886647 0.11801491 0.29195225 -0.6754301 -0.4500449 -0.59741783 -0.7035079 0.03897354 0.1406751 0.41907078 -0.25641248 -0.38832763 -0.62783617 0.27789825 0.32513294 0.38744432 0.3922571 -0.21990119 -0.00066998304 -0.18749352 -0.11322081 0.44562733 -0.32169718 -0.25644004 0.32702136 0.78423077 0.34677613 0.6316708 -0.32451048 -0.18878503 -0.115400515 0.023299206 -0.90978473 0.20271192 0.12193307 0.021523328 0.248767 0.6639266 0.6495108 0.1696736 0.14189719 -0.29589966 -0.21913901 0.018719668 -0.5810678 0.59081537 -0.3003619 -0.11473039 -0.054367356 0.22711278 0.62577516 -0.9516188 0.13237196 -0.25067398 0.59047246 -0.19969256 -0.0072173052 -0.14894396 0.8599919 -0.5100243 -0.951338 0.23487209 -0.12817028 -0.19406678 0.40261233 0.24203612 -0.54242474 -0.039189123 0.07211221 0.2070661 0.11992214 0.51158047 0.028185166 -0.05326021 0.033135805
550 -0.424708 -0.37047753 -0.4743576 0.41531798 -0.14304471 0.46173382 -0.00830575 -0.22491479 -0.21951148 -0.5094923 -0.2185489 -0.3907843 0.7216681 -0.09129773 0.14516807 0.49023 -0.095859475 -0.56826144 -0.023418179 0.64083755 -0.089306355 0.16397443 -0.21278092 -0.2273188 0.36935347 -0.077758856 -0.16803391 -0.10050725 -0.38113633 0.5511562 0.23823176 0.17993522 -0.05138153 0.25842562 -0.022046195 -0.11017817 0.14154196 -0.37318793 -0.70152426 0.04879832 -0.29474655 -0.041800935 0.4033769 0.20886113 -0.1554628 -0.34153193 -0.0025947376 -0.36807048 -0.8777706 0.28871912 0.6857614 -0.21317878 0.62737536 -0.6285346 -0.009131367 0.122479945 -0.038346156 -0.20843074 -0.37851256 0.5544363 0.10380193 0.4350877 0.37920773 0.12402751 -0.12686664 0.16364603 -0.35377374 -0.3382971 -0.41655874 -0.11463373 0.45269534 -0.20185308 0.28778914 0.5554924 0.3456286 -0.18109524 -0.7149521 0.7749921 0.6142281 0.7255677 0.65874815 -0.22749282 0.11089465 0.0024380155 -0.30475968 0.045346834 -0.0929508 0.20167081 -0.23517518 0.7874655 0.101499185 -0.2393271 -0.30071118 -0.06629421 -0.24892718 -0.28070506 -0.41169143 0.4334601 0.07908752 0.43384814
584 -0.12099851 -0.48041737 -0.67302275 0.19190407 -0.29249185 0.6395987 0.019004142 -0.18246646 -0.114316285 -0.3775926 -0.28138185 -0.6200466 0.6280436 -0.059671424 0.06453876 0.29755446 -0.37807006 -0.51433605 0.053029425 0.55604815 -0.118794024 -0.094576076 -0.13592422 -0.14089409 0.43635443 -0.06376496 -0.16309977 -0.43967256 -0.40612033 0.2712033 -0.06429769 0.34399074 -0.0455132 0.24186565 -0.12665331 0.14519256 0.091138266 -0.4441328 -0.8502551 -0.16139092 -0.17910525 -0.007339955 0.16457328 0.26723123 -0.175471 -0.32766494 -0.26242954 -0.22375862 -1.0158532 0.27459848 0.3858146 -0.15923844 0.19644006 -0.48467374 -0.10149599 -0.18832815 0.19053137 0.117725 -0.28773105 0.116825424 0.35487443 0.5100987 0.40586668 0.20566575 -0.43649587 0.23759429 -0.5368872 0.09386812 -0.26741752 -0.0818397 0.2908647 -0.08878137 0.120368905 0.47843882 0.40430832 0.1087872 -0.347821 0.9344214 0.13235992 0.47332236 0.62775344 -0.37043786 -0.07816793 0.21340156 -0.19302996 -0.07717987 -0.13167983 -0.061066303 -0.06670621 0.84096485 0.36871326 -0.17337218 -0.2634411 -0.38478738 -0.15052441 -0.058364216 -0.45847625 0.18070593 0.16159412 0.07650211
258 0.10102601 -0.21701288 -0.018267551 0.20624432 -0.20660189 0.82648337 0.10341746 -0.20117699 0.36056915 -0.25567383 -0.6140456 -0.29476112 0.23829553 0.3153466 0.15421192 -0.09590766 -0.011183115 -0.36188793 -0.27385023 0.86137855 0.22951694 -0.009214744 0.41539422 -0.39529142 0.22577696 -0.9265028 -0.07481318 -0.22554038 -0.41311264 0.05283214 -0.3953636 0.5549683 -0.23100989 -0.49354285 0.26130778 0.8724463 0.37615526 -0.31524086 0.42734224 0.17782666 -0.6389823 -0.17915873 -0.48088783 0.28237438 0.17667867 -0.3660662 -0.07718634 -0.5720805 -0.082297735 0.051650304 -0.06590081 -0.5758871 0.7110899 -0.47015715 -0.5806688 0.1446377 0.0316905 0.24688315 0.5872217 0.16689302 -0.11435624 -0.1618961 0.598613 0.18538412 0.7803408 0.48075938 -0.37931722 -0.39668074 -0.064414494 -0.53180426 0.57557744 -0.25987938 -0.73087424 -0.004555641 -0.34662277 -0.010791151 -0.82972145 0.58432335 -0.34494677 0.16344614 -0.4337344 -0.022381475 -0.14607866 0.49276024 -0.283649 -0.61881775 -0.37774894 0.8265981 0.17195572 0.24664263 0.23342583 -0.16524611 -0.13659938 0.19480582 -0.067480974 0.07718256 0.37769267 0.50046474 -0.46272784 0.104802944
224 -0.10317026 0.023141209 -0.7966503 0.46233955 -0.2927846 0.63180083 0.43855152 0.5931503 0.08316028 0.22288144 0.17046103 -0.76683706 0.030293327 0.4370164 0.18963231 0.27123064 -0.112676136 -0.45573318 0.08762912 -0.09550232 -0.2566413 -0.42864972 0.32919315 0.05816253 0.6748299 0.3168586 -0.15340242 0.590352 -0.26353422 0.61335164 -0.794826 -0.30084008 -0.33496314 0.083831996 0.040612515 0.37824488 -0.12856627 0.2600706 0.3688873 0.3772568 0.06978993 0.5268059 -0.17308718 0.46643782 0.07579677 0.31590578 -0.23364832 -0.85239995 -0.6408352 -0.5732376 0.16107616 -0.061895963 -0.05565284 -0.2072226 0.06488059 -0.007707915 0.27090353 -0.14761004 -0.49639645 0.35993743 0.2772888 0.37057376 0.07289298 -0.0020269004 0.5115662 0.44063997 -0.6539016 -0.72009444 -0.28279185 -0.60232604 0.56909835 -0.031734828 0.021491265 0.3642236 -0.5697875 0.016971698 -0.5036157 0.037082355 -0.11978088 0.280748 -0.005487152 -0.29580244 -0.29619947 0.69335616 -0.49054277 -0.6695899 0.27194095 0.62465876 0.12873404 0.32469326 0.2312235 -0.9360482 -0.18527432 0.52149135 0.061092563 0.68433166 0.082479514 -0.5572502 0.33143178 -0.2457143
536 -0.83360916 -0.8084705 -0.23810844 0.4206841 0.0711295 0.47843426 0.34193096 0.30024803 -0.056366906 -0.04214189 -0.50991285 -0.7257454 0.11118832 1.0066508 -0.64925313 0.5247701 -0.5231941 -0.17504492 0.3145435 0.41119382 0.13385208 -0.1470289 0.28794292 -0.21444863 0.4452095 -0.024313012 -0.23988801 -0.06127653 -0.7819042 0.51911074 -0.943805 -0.33790046 -0.6396542 0.1351091 0.6388547 0.9182565 -0.031458765 -0.0699319 0.13890223 0.83356667 0.082441136 -0.06434909 -0.14136598 0.5793271 -0.5411507 0.34179857 0.043431003 -0.39516947 0.09934217 0.26659483 0.49257484 -0.120814204 0.40775403 -0.23040718 0.22010556 -0.0674188 -0.30750284 -0.16395365 -0.062237695 0.36604744 -0.14498429 0.06404337 0.32727018 0.43297166 0.59505725 -0.24426122 -0.44311455 -0.6932706 0.06660589 -0.16274235 0.3637878 -0.37425423 -0.07045079 -0.105766214 -0.7827369 0.15614071 -0.18152879 -0.1460158 -0.17910063 -0.5281758 0.4360729 -0.27371514 -0.12141915 0.3632918 -0.82159716 -0.21503052 0.022590976 -0.13906896 -0.2924496 0.59292 0.36531264 0.14230612 -0.19770771 -0.030856742 0.23676237 0.6641173 -0.19985965 0.2244588 -0.27572688 0.10246049
393 -0.46029156 -0.35491544 -0.58810514 0.14081076 -0.71126354 0.080015846 0.2028302 0.18980701 -0.81517875 -0.099399224 -0.87528217 -0.23356144 0.3813464 -0.24907461 0.054143235 -0.06488385 -0.73857903 -0.6029697 0.4935396 0.6874142 -0.24052295 0.10681612 -0.74310917 0.32489276 0.61895823 -0.63472325 -0.37426266 -0.3716284 -0.1816977 0.4979459 -0.9242276 0.1978885 0.31525397 -0.16169977 0.6084566 -0.24794891 0.018956404 0.00949156 0.07697528 0.6682626 0.25394568 -0.045247953 -0.37967965 0.96020204 -0.015419589 0.6069668 -0.31980377 -0.42011702 -0.17705327 -0.20461951 0.20378757 6.366127e-05 0.3862692 -0.030494137 0.5457239 0.10523526 -0.019083275 -0.15436871 -0.17980714 0.38118947 0.40207797 0.22517222 0.20813787 0.29196918 -0.04634818 0.33464032 -0.5012576 -0.85118884 -0.15213442 -0.058370516 -0.053527113 -0.20106263 -0.35103807 0.07048642 0.10171982 -0.51844 -0.37348616 0.1678332 -0.55714947 0.5109595 0.50610226 -0.44257003 0.008842681 0.5698264 0.0627375 -0.66231555 -0.40612006 0.22626188 -0.22378147 0.18227652 0.17838176 -0.5344194 0.61023813 -0.27998978 -0.41333193 0.3259024 0.76903707 0.5947848 -0.2354559 -0.8654248
303 -0.3026052 -0.7135247 -0.96011925 0.50300205 -0.68044966 0.6586691 0.46232048 0.5213132 -0.42979917 -0.076868385 0.11000588 -0.2366031 0.7535334 -0.53649515 -0.25228038 0.17771564 -0.3838537 0.0708013 -0.3154324 -0.20313014 0.27478275 -0.14388855 -0.32034418 -0.21276034 0.92882955 -0.35069832 -0.18928154 0.5242774 -0.008506943 0.14292772 -0.0393217 0.11253517 -0.19354787 -0.14700235 -0.040089607 -0.11109259 -0.32310155 0.009745504 0.13384335 -0.033409815 -0.34925663 -0.39093575 -0.9416938 0.072967544 -0.21934733 0.19404736 0.49081913 -0.35720596 -0.20366128 -0.39977422 0.16408701 0.37343416 0.4500281 -0.7467482 0.31965107 0.081609465 0.19499038 -0.90729463 -0.3582516 0.27398655 0.37571716 0.23992734 0.6419858 0.23809758 -0.10746023 -0.081545554 -0.703352 -0.8700094 -0.27472058 -0.18914632 0.33421716 0.36759052 0.19017401 0.010907904 -0.18217248 0.44019297 -0.5023016 -0.26399514 -0.5208091 0.73307896 0.35534817 0.51625204 0.1984536 0.15423937 -0.36853322 0.21732815 0.46744648 0.23169897 0.53812397 -0.058662526 -0.21814302 -0.5684544 0.027460389 -0.05169799 -0.05225913 0.059687644 0.58643794 0.04671585 -0.9569696 -0.0413978
244 -0.08287832 -0.62965506 0.12530534 0.10641671 0.13143909 0.89489406 0.08981126 -0.5341901 0.42922428 0.06959162 -0.43053582 -0.57260233 0.16589788 0.5502559 0.3414691 -0.18075788 0.13399057 -0.39702564 -0.3942789 0.80706036 0.26939523 0.16620995 -0.1913182 -0.009902422 0.1077596 -0.5757401 -0.28073078 -0.4969004 -0.7530874 0.24373524 -0.24441248 0.6102905 -0.61710197 -0.07348893 0.59743667 0.34805575 0.15989423 -0.31006646 0.12694837 0.14869542 -0.20709439 0.2786714 -0.18467504 0.4339307 0.39901468 -0.069537304 -0.19970065 -0.42978656 -0.4801697 0.18015341 0.27032003 -0.19667868 0.9994143 -0.14931703 -0.44523206 -0.3360122 -0.02709786 0.2709225 0.16504002 0.028076379 0.27570662 -0.17157453 0.687926 -0.062367737 0.70320255 0.7884087 -0.42956197 -0.17070639 -0.01877229 -0.85801566 0.56578785 0.078449786 -1.0631399 0.5020422 -0.5009587 -0.39458886 -0.85256153 0.24882649 -0.21550277 0.38197088 -0.7102753 -0.57469803 0.13132581 0.33824515 -0.007820095 -0.6233427 -0.26569623 0.8295035 0.018532814 0.574221 0.451158 -0.37181526 0.4999203 0.13000436 -0.4229437 0.11651518 0.552763 0.25765607 -0.65033364 -0.36427695
483 0.16708443 -0.10262708 -0.53258675 -0.092599936 -0.33409128 0.22862783 0.34559613 -0.0052931807 -0.27496314 -0.3651595 -0.35033587 -0.3948439 0.21629217 0.73892206 -0.07981031 -0.44063312 -0.37402633 -0.6393542 0.35789156 0.86387485 0.18444787 0.027927201 -0.6965735 0.06684706 0.39466003 -0.47784665 0.031042626 -0.28857192 -0.5725773 0.51449883 -0.80192876 0.6025015 -0.14654912 0.06130175 -0.112897605 0.47931847 -0.073008336 0.109781116 -0.114431866 -0.23277596 0.24758595 -0.42858163 0.24925399 0.21184757 -0.56253946 0.07994829 0.08706227 0.14979853 -0.77524805 -0.50417495 -0.005005488 -0.20511925 1.061495 -0.4365686 0.15999912 0.5980396 0.69208086 -0.49776 -0.2132972 0.21524906 -0.08266607 0.28898746 1.0213842 -0.15724052 0.40339327 0.5862542 0.35189027 0.011323145 0.40510356 -0.45060822 0.12525123 -0.5002848 0.07715049 0.3517046 -0.19174944 -0.109494686 -0.9944239 -0.28192022 -0.06966073 0.1517845 0.677844 0.10633745 0.15534103 0.058060564 -0.08079795 -0.3668555 0.41566262 -0.38844344 0.41244084 0.765796 -0.53884137 -0.9063725 -0.33071938 -0.43196562 -0.64186376 0.18648605 0.2549157 0.54538655 -0.25627446 0.40142342
164 -0.22676787 0.08507547 -0.2952048 -0.38579094 0.22551239 -0.033376772 0.44589505 -0.46651104 0.07226805 -0.45096436 -0.6702453 -0.25192145 0.5132218 0.12941673 -1.0551976 0.3265802 -0.4344403 -0.33435816 0.4004947 -0.2500461 -0.11483061 0.3092997 -0.8105066 0.29808626 0.48566213 0.37911344 -0.5660679 -0.09703234 -0.26010934 0.03864826 -0.70681167 -0.258461 -0.3688536 -0.22735769 0.3179763 0.052683488 0.40667638 -0.8844381 0.07362916 -0.51861316 -0.03412065 -0.10813615 -0.2960624 -0.111802384 -0.11211346 -0.5947791 0.15240696 -0.6200649 -0.6761943 -0.33425584 0.007971477 0.44362968 0.3767336 -0.21012665 0.18448105 0.47334287 0.16126224 -0.548092 -0.2131092 0.07070846 0.031961147 0.7071525 0.70475733 0.2148765 0.44303954 0.13326122 -0.9493727 -0.7735873 -0.10522137 -0.46748197 0.55297184 -0.14928123 -0.30394483 0.232412 -0.099415936 0.20887418 -0.4944516 0.070260696 -0.23221302 -0.063239016 0.21770488 0.74263984 0.03466263 0.6742003 -0.85386986 -1.1566087 0.41950178 -0.013340188 0.012041048 0.43233687 -0.08274279 -0.10643986 -0.011810157 -0.15243322 0.4488905 -0.071809344 0.6859238 0.09164608 0.12527922 0.12323471
418 0.03645618 -0.36085773 -0.41751045 -0.043111794 -0.11429639 1.0644345 0.36647725 0.028852688 -0.22748955 -0.027667716 -0.084161855 -0.04188318 0.6488721 -0.13634689 -0.21870297 0.34824347 0.2123221 0.20352773 -0.31527004 0.3378015 0.08051806 0.14268218 -0.2299816 0.2619203 0.33196822 -0.56681806 -0.19746713 0.17983599 0.13108511 0.4096795 -0.58403885 0.16256094 -0.36153886 -0.24860473 -0.023275807 -0.031098554 -0.10142738 -0.25968337 -0.16917963 0.38116494 -1.065354 -0.0509974 -0.1578675 0.030005181 -0.20989284 0.42588675 0.4415362 0.21231769 -0.7092737 0.24021968 0.021106612 0.1580883 0.4255939 -0.6209043 0.77029705 -0.40624684 0.38109127 -0.3479662 -0.15862633 0.40439627 0.73971504 0.14145857 0.97335255 -0.30038247 0.16774179 -0.30942076 -1.1742495 -0.5082053 0.13650706 -0.3917002 0.18567291 -0.0643301 -0.10716189 0.60380304 -0.7438026 -0.5103451 -0.34980562 -0.024883086 -0.69210505 0.77834743 0.26014087 0.046218872 -0.3568453 0.28081456 -0.017511073 -0.4915478 0.30318877 0.5908331 -0.49749908 -0.036142405 -0.26031676 -0.08456917 -0.14682171 -0.05197288 0.39657575 -0.010297676 0.69860107 -0.14319995 -0.6292398 0.41257504
96 -0.42808264 -0.56067944 -0.8545242 0.71462333 0.14058052 0.23031169 0.43587288 -0.43967414 0.09235397 -0.66956925 0.17965108 -0.63834804 0.10426877 0.36135587 -0.62103707 -0.30930048 0.04558661 -0.7306696 -0.06882823 0.23272307 0.52175146 0.13997653 -0.42175382 0.3810725 0.76655143 -0.48144695 0.17732635 -0.5600331 0.2627658 0.24883462 -0.5042217 0.24404785 0.0646536 -0.15130219 0.20241398 -0.059011836 0.12543504 0.24723184 -0.2616143 0.060774777 0.08614355 0.17348446 -0.24747156 0.31020522 0.16013989 -0.16982675 0.37671736 -1.2393845 -0.6557496 0.21242508 0.68515784 -0.33855703 0.44598493 -0.20937984 -0.21757475 -0.20034745 0.42178237 -0.7371854 -0.028805334 0.4233808 0.17135166 -0.06332656 0.5590783 0.09509219 0.22952475 0.060941286 -0.5516148 -0.63641936 0.048119422 -0.67640555 0.83443725 -0.0489679 0.028354086 0.18207023 -0.5606884 -0.045857314 -0.6325657 0.1540766 -0.037409004 -0.22845598 -0.2769751 0.37672693 0.5257592 0.22359411 0.2582948 0.55268174 -0.2770832 -0.31582838 -0.11490193 0.0074074045 0.019224077 -0.026530152 -0.37621784 -0.60790324 -0.2891402 0.9950816 0.75814176 -0.21508339 -0.059519168 0.35126346
47 -0.26899672 -0.317012 -0.44298738 0.45774144 -0.36952496 0.7610025 -0.1776623 -0.48755074 0.38963315 -0.13175677 -0.031538226 -0.81642234 -0.108593896 0.05630879 -0.013084231 0.34388947 -0.5410023 -0.16796087 -0.018538285 0.092012644 0.49786887 -0.035497576 -0.46306846 0.5001715 1.2747117 -0.14053936 -0.61148506 -0.21706098 0.13739571 -0.09243224 -0.29547465 -0.06805121 -0.13385086 -0.08677305 -0.103407726 0.31022623 0.2270507 -0.2143077 0.37701082 0.035626974 0.30683523 0.080743805 -0.0012850336 -0.046507716 0.39260596 -0.051225405 0.19759388 -0.29979193 -0.13889952 -0.18093716 -0.32830966 0.1486626 0.07444855 -0.68481255 0.32774454 0.16254705 0.6024597 -0.47121093 -0.20006375 0.8344158 -0.6421044 0.7045603 0.617567 0.10939711 0.29584965 0.38062692 0.2717044 -0.56805044 0.342265 -0.23115633 0.44778377 -0.15739864 -0.4872036 0.40285495 -0.112128586 0.27907243 -0.13983154 0.08243238 0.3767041 0.6417363 0.58935976 0.35102043 0.013772743 0.36535197 0.22805448 -0.86860824 -0.23950277 1.2187263 0.059298202 0.15334669 0.4508285 0.19292302 0.08194736 -0.056688353 -0.10507158 0.11257884 0.8488756 0.5422243 0.20563553 -0.2718063
380 -0.23330377 -0.15555577 -1.0420917 0.21811672 -0.041757323 0.8356544 -0.07162544 -0.28300548 0.106087774 -0.3171459 0.16756813 -0.21796937 0.22240679 0.08211128 -0.0032823752 -0.11136169 0.010894931 -0.04102869 -0.14314419 0.18234658 -0.17573804 -0.3876177 -0.7236004 0.7053897 0.89430547 0.10167668 -0.06972998 0.2228669 0.1509957 0.032074004 -1.2166976 0.19604047 -0.12077935 0.13203037 -0.22597703 0.40680242 0.36496666 -0.4161234 0.2928306 -0.10365254 -0.1639198 0.4273788 -0.67568827 0.012175734 -0.19014518 0.7058943 0.3736482 0.26009396 -0.15082774 0.12828824 0.4243116 -0.45076036 0.3564604 -0.114762746 -0.4636313 -0.2015743 -0.1808627 -0.8379958 0.24182944 0.10609136 0.33337286 0.7761536 0.49072272 -0.4067089 0.13963987 0.6298709 -0.37267244 -0.70611155 -0.27553394 -0.2661818 0.5474251 0.11356058 -0.10954073 0.09780009 0.17891914 -0.37544042 0.09967917 0.5403021 -0.82294565 -0.01887122 0.25969985 0.5585565 -0.55982625 0.27108213 -0.8906445 0.054992974 -0.0470732 -0.032293525 -0.14264283 0.36337775 -0.37954748 0.18217988 -0.60053533 -0.3411013 -0.3883683 0.02349063 0.08508248 -0.25550148 -0.54970205 -0.35830796
583 -0.4486965 -0.016306106 -0.7789513 0.34404612 0.389005 0.63892126 -0.0061590807 -0.2557212 -0.5907398 -0.5769991 -0.75039357 0.046632715 -0.2530906 0.17200443 0.31835556 -0.33593953 -0.10740332 -0.41891 0.19430247 -0.19662444 -0.28693086 -0.7019085 -0.6328749 -0.2603136 0.51171523 -0.024935553 -0.48206052 0.5343357 -0.27767545 0.6950824 -1.010539 -0.24779166 -0.56603324 -0.096680135 -0.09169319 0.38047668 0.016695876 0.08083402 0.31510445 0.20324607 -0.08904586 0.03961152 -0.37975517 -0.07316733 -0.2159323 -0.06513997 -0.06370255 -0.25038475 -0.665915 -0.33742037 0.7603087 -0.28712764 0.6947132 0.047967754 0.37094268 -0.48513585 -0.079559416 -0.06906367 -1.024141 0.59401613 0.09218137 0.55000883 0.30888206 0.59981346 -0.0023879989 0.06619136 -0.5880006 -0.20830257 0.017604029 -0.691263 0.2579897 0.224948 -0.9556789 0.7244623 -0.22731821 0.3367472 -0.7740759 0.10784565 -0.66610295 0.4863492 0.28930825 0.36493137 0.5089276 0.12619312 0.156279 -0.36330128 -0.11622266 0.18706506 0.010646012 0.19663818 0.12548487 -0.60052663 -0.4505218 0.078902 -0.33892453 0.17134659 0.46693572 -0.43844122 -0.2726331 0.20437604
50 -0.082835436 -0.18906954 -0.4949665 -0.16034071 -0.23429894 0.16414136 0.17558406 -0.048038937 -0.13453956 -0.3191233 -0.38905326 -0.655593 0.23196724 0.8647515 0.10875039 -0.21240842 0.035210535 -0.46997324 0.2680565 0.7211397 -0.0062425584 -0.05116979 -0.65885645 -0.010482583 0.48018798 -0.39709884 0.0384912 -0.48758486 -0.46770966 0.3841472 -0.9570331 0.44169804 -0.24679907 -0.007912443 -0.28297067 0.25063393 -0.103851914 0.11214695 -0.29396474 -0.24242675 0.20937595 -0.34651807 0.06267452 0.13924545 -0.63819677 0.12895589 0.050555795 0.11839523 -0.7653138 -0.23931569 0.108450055 -0.24729809 0.87563956 -0.23089698 0.21671997 0.4120725 0.72895503 -0.15993534 -0.24655166 0.14172105 0.032248903 0.30845973 1.0519992 -0.07991709 0.12617627 0.5470058 0.10719975 0.03439893 0.24032545 -0.39774323 -0.111949466 -0.4206054 0.12132551 0.33962125 -0.034787796 -0.10215691 -0.75033385 -0.33538502 -0.008289797 -0.005782406 0.87448853 -0.23121452 -0.10955701 0.24437661 -0.18060905 -0.6010539 0.52957076 -0.5362845 0.29071155 0.7495441 -0.4471928 -1.165481 -0.25579423 -0.5086932 -0.41917923 0.16610041 0.17473155 0.54887795 0.03262304 0.3686156
522 -0.11054849 -0.0926085 -0.34168178 -0.07905251 -0.520586 0.23177195 0.3505708 -0.13790001 -0.45830938 -0.67733765 0.11519314 -0.22192805 0.58452326 0.29416594 -0.03131605 0.07105787 -0.48318514 -0.2734363 -0.29723245 0.18977007 -0.24629255 -0.2798032 -0.4729471 0.21917152 0.19787148 0.21161889 0.09003173 -0.11082285 0.49213627 -0.10235158 -0.2217371 0.3759888 0.11634314 -0.11679867 0.3215622 -0.14887738 -0.0915953 -0.39308637 -0.2708804 0.30237252 0.050679542 -0.8584829 -0.42564604 0.1442973 -0.29609555 0.13361417 0.29529455 -0.03179586 -0.87838894 0.0027922725 0.23969163 0.1452603 0.4563203 -0.41984424 -0.62176716 0.20268282 0.10112643 -0.16778687 0.15379097 0.74286073 -0.47006842 0.15109198 0.17059933 -0.573367 0.58535093 0.9650177 -0.79180175 -0.7149602 0.1179323 -0.93090206 -0.13010818 -0.018094223 -0.23394783 0.43758866 -0.5958425 0.4771703 -0.6460531 0.49613088 -0.2663941 0.75958633 0.018752415 0.09790561 -0.21981266 -0.40434986 0.18357705 -0.55224967 -0.26454395 0.25071907 0.106915735 0.53769034 0.085338 -0.32514828 0.19070564 0.28366697 -0.47564518 0.26864564 0.19828044 -0.5188102 -0.1626357 -0.26156524
215 -0.26671082 -0.5670749 -0.6081867 0.47078973 -0.88901913 0.68260735 -0.18157518 0.30463484 0.3103395 -0.40937936 0.048600312 -0.7297831 0.6615665 0.56488585 -0.32133663 0.5701367 0.2782591 -0.040782854 0.12842171 -0.06955336 -0.07223864 0.62622476 -0.5414765 0.101268694 0.6346067 -0.5560631 0.014854277 0.038370937 0.26419437 -0.12755014 -1.0523548 -0.44252765 -0.32908872 -0.030932544 0.0236415 0.100790344 0.18557651 -0.38148907 -0.041715898 0.21970165 0.23435313 0.30261585 -0.17835869 -0.043723747 -0.297846 0.34272268 0.46185407 0.044991363 -0.17096414 0.049378 0.3796897 -0.8563268 0.8902096 -0.27138284 -0.48667488 0.05630052 -0.83206964 0.06703238 -0.8790424 0.50980496 0.17811407 -0.2611213 0.5577122 0.029021518 0.4430971 0.47344482 0.15345846 -0.72470194 0.34933454 -0.8730129 0.05572205 -0.16222943 -0.112488404 0.1923251 -0.19559334 0.40827167 -1.1169261 -0.04431834 -0.070203654 0.6208899 -0.10748205 -0.33938718 0.06277877 0.9469569 0.1580092 -0.2619955 0.33240235 0.055493362 0.10831718 0.26363665 -0.28195763 -0.13204794 0.05026806 -0.34108964 -0.05763677 0.3181711 0.6028783 0.03230748 -0.24117781 -0.58322734
226 0.14556143 -0.5474201 -0.72002363 -0.03455269 0.109908566 0.32725513 0.23910123 -0.20729077 -0.37831855 -0.1266643 0.25364888 -0.16424574 0.190579 0.68707883 -0.45945537 0.07874763 -0.24299854 -0.24375618 0.25140506 -0.24087054 -0.5716353 0.17770568 -0.6710206 0.31403852 0.6020671 -0.39905596 0.3033323 -0.03781463 0.080957025 0.32000795 -0.5691298 0.5513647 -0.26368335 -0.0017418539 0.11080907 -0.53994364 -0.17366147 -0.09796539 0.050927687 0.3801299 0.17060941 -0.13783295 -0.7976924 0.7314254 -0.25765678 0.27946183 0.19484313 -0.5417091 -0.49191803 0.27287608 0.2092698 0.47301808 0.187319 0.36360064 -0.732493 0.011856202 0.24331713 0.037604503 -0.22769673 0.41872546 -0.1505586 0.09155896 0.66231316 -0.5682952 0.7600173 0.38138294 -0.93890506 -1.0252776 0.2399963 -0.7169145 -0.03275604 -0.036439586 -0.37354526 0.11495378 -1.0167954 0.4217171 -0.24130413 0.15594107 0.1798403 0.48975673 0.31637317 0.24865484 -0.24316809 -0.38195336 -0.3419395 -0.63822335 -0.5386424 -0.16530597 -0.35880518 0.9655003 0.18536524 -0.80851525 0.45699117 -0.128054 -0.1638723 -0.2655717 -0.18286757 -0.020575158 -0.18587033 -0.46143404
414 0.014032413 0.02887322 -0.40725136 0.688457 -0.41400462 -0.029204316 0.252385 -0.7584148 0.025969904 0.19020931 0.08435981 -0.54978585 0.0042081033 0.864799 0.30560207 -0.026719544 0.046561863 0.08399471 -0.17460382 0.46992517 0.38703412 -0.15781672 -0.3719038 0.5679213 0.91558295 0.027877064 -0.60284036 0.24094038 -0.011233604 -0.22527936 -0.33124962 0.20727272 -0.44998735 0.24199066 -0.068312325 0.15606292 -0.08393741 -0.22687615 0.4598493 0.18084738 0.49455553 -0.30324957 0.09578234 0.3551428 0.44187966 0.11694881 0.50868493 -0.38809898 -0.15659858 0.22494043 0.16157445 0.09245958 0.012820746 -0.41327897 -0.1605784 -0.3128481 0.6064878 -0.2657449 -0.07822887 0.3344041 0.12750287 0.75677645 0.6757781 0.27299 0.84295636 0.23692755 -0.20316552 -0.4810365 0.028782543 -0.29677033 0.045668907 -0.31870148 -0.35726017 0.72723246 0.26774043 0.11889189 -0.1071069 0.05262651 0.1908335 0.76247543 0.5001274 0.23342858 0.030013595 0.17441864 -0.037718214 -0.26450968 -0.2563976 0.5716505 0.25256282 0.30662546 -0.033776857 0.20681256 0.49931 -0.23270847 0.32920948 0.2794841 0.8165581 0.20200722 -0.26236227 -0.0045620943
387 -0.062208258 -0.89274716 -0.801184 -0.29598707 -0.2546172 0.41544053 0.49568087 -0.17621505 -0.036030266 -0.47291708 -0.028539497 -0.19770156 -0.004794323 -0.3693065 -0.5213538 0.42826235 -0.6737632 -0.5516018 -0.03132553 0.056200728 0.43582276 0.708511 -0.1766808 0.3533325 0.7163954 -0.45982054 0.10819331 -0.28940317 0.34348375 0.44463205 -0.37115523 -0.4170411 0.11518218 -0.37822238 0.27264172 0.07287126 -0.029526591 -0.22077195 0.43773332 0.18973212 -0.42039537 -0.24602057 -0.201075 0.04529837 0.3008662 0.68562025 0.02857408 0.030954776 -0.12766442 -0.24123043 0.13017657 -0.53045374 0.78574216 0.013847618 -0.05853424 -0.43622056 0.417345 0.15552627 0.30334592 0.69176215 0.41920975 0.2795096 0.9930878 0.052992478 0.48308644 0.21440992 -0.54494756 -0.5203386 0.15720768 -0.13230842 0.14581957 -0.25322148 -0.4033423 0.6718127 -0.44297698 0.21227033 0.37917554 0.34703043 -0.39580938 -0.30396092 0.16888037 -0.10121719 0.057824768 0.50398844 -0.4449241 -0.0399557 0.3323046 0.49367762 0.014760734 0.26878804 0.3751962 -0.3993653 -0.40007925 -0.14819112 0.5284501 -0.3973628 -0.11206991 -0.12826218 -0.69089913 -0.4613352
539 -0.22184488 0.099308416 -0.4863612 0.47551662 -0.30674124 0.43565303 0.43263596 0.38511834 0.03294151 0.19348837 -0.26339692 -0.36846894 -0.24269502 1.3246368 0.17157353 0.23320137 -0.8665789 -0.31684566 0.046569824 -0.010411226 -0.55326957 -0.5242127 0.033954874 0.36002028 0.52827877 -0.03905829 -0.49305624 -0.21270101 0.45071587 0.6693418 -1.22439 0.3665996 -0.53496194 0.8031305 0.5390249 0.2128926 0.14539257 0.01855396 0.09620663 0.31601787 -0.005502191 0.52369887 -0.74312836 0.15331359 -0.30809656 0.117415 0.040044636 -0.28251037 -0.69003457 -0.23485494 0.45215845 -0.16068979 0.6296286 -0.7284184 -0.22572535 0.14324076 0.11884361 -0.46952653 0.30865404 0.44093573 0.060645204 0.24623314 0.39949495 -0.26770607 0.7039779 -0.14407197 -0.85055965 -0.4375646 0.4348809 -0.57551384 0.3330638 0.10767478 -0.21179362 0.3411517 -0.37867793 -0.35402358 -0.38752723 -0.2741833 0.22169575 0.10253507 0.39577594 -0.09667781 0.7322036 0.3661448 0.068688236 -0.19014004 -0.14572982 0.36039233 0.28583065 -0.0051694936 0.29219624 -0.51459336 -0.5987699 -0.22548229 0.17946771 0.2035862 -0.32525286 0.23339008 -0.03639279 -0.13053377
114 0.03533445 -0.9126308 -0.2597739 -0.019398699 0.17688683 -0.023811938 -0.3478416 -0.38969356 -0.014010127 0.34917778 0.14442866 0.034424987 0.37548417 0.07173784 -0.2935871 0.43423057 0.39489764 -0.24944785 -0.12638482 -0.14879318 0.36184213 -0.28485408 -0.22634895 -0.1000885 0.5055145 0.19128843 0.23889881 -0.13678887 -0.051008835 0.57849735 -0.6376038 0.52325124 -0.33778387 -0.4927279 0.109621614 0.019080704 -0.63659734 -0.5365582 -0.05474147 0.069727354 -0.1923662 0.0729476 0.005282838 0.068998314 0.13826059 0.2432445 -0.34773627 -0.57004565 -1.1269863 -0.24411559 0.4198705 -0.30191395 0.7730147 -0.39710766 -0.6270211 -0.18696016 0.5405211 -0.16713272 -0.03441621 0.28702122 0.6773782 0.10926206 0.5881269 -0.37865713 0.5750868 0.13942094 -0.07031401 -0.4863247 -0.28483346 -0.2938424 0.28397208 -0.33427024 0.107352234 0.12690818 -0.04176607 0.6008764 -0.7070039 0.21203585 -0.21128918 -0.14740744 1.000808 0.15866376 0.09866813 0.2273183 -0.31931967 -0.8930216 -0.21081929 -0.015849425 0.40334138 0.045682248 -0.42235738 -0.5838491 -0.28282654 -0.12928832 -0.6697472 0.41173428 0.589792 0.748232 -0.6661384 -0.42954022
502 -0.08865748 -0.22156975 -0.50488365 -0.41081482 0.41806188 0.26092815 0.48274007 -0.6167157 0.05383945 0.12371439 -0.35747257 -0.55151564 0.8241914 -0.32059538 0.018026644 -0.17420639 -0.39279637 -0.21953025 0.022400945 0.22587956 -0.28286585 -0.45062116 -0.26702133 0.3999313 0.7678001 -0.091686726 0.26563707 -0.015230093 -0.13338204 0.4947545 -1.0033848 -0.14739631 -0.29853085 0.3675068 0.014885833 0.46568018 -0.40015516 -0.16445602 0.024404168 0.30016133 0.5113575 0.525183 -0.27116144 0.62752306 -0.08965036 -0.029859466 0.10769371 0.18435459 -0.26363856 -0.111256115 -0.14400068 -0.09607063 1.0561899 0.2591176 0.030699054 0.04094411 0.431274 -0.78014016 0.1801539 0.6312812 0.72017354 -0.06154424 0.13241535 -0.16552308 0.33853218 -0.022679374 -0.018634282 -1.0760018 0.38589308 -0.32068226 0.86346745 -0.31244227 0.09450498 -0.048707616 -0.6342462 0.5450215 -0.79790914 0.6322482 0.10989938 1.0004866 -0.049056154 -0.08698265 0.18799636 0.4721811 0.12849683 -0.47692454 0.13747199 0.010046728 -0.27581593 0.51807815 0.19623679 0.25514004 -0.043503627 -0.3087621 -0.18318406 -0.26504248 0.39184824 0.4192823 -0.65853155 0.0033511573
198 -0.08669667 -0.90476936 -0.42571574 -0.058763843 -0.103160426 0.5273151 -0.090462565 -0.36941573 0.30606848 0.017937625 -0.8524795 -0.33161786 0.025067348 0.5737192 0.54458624 -0.0304712 -0.032281693 -0.6715242 -0.27836022 -0.056759346 0.6696934 -0.25597084 -0.3016941 -0.31386822 0.8811773 0.23331435 0.011721074 -0.058685012 0.05780364 0.561798 -1.1920488 0.037862122 0.00022607535 -0.12108817 0.022682626 0.028481694 0.11911729 0.03532144 0.52864295 -0.6840399 -0.34409016 0.26161078 0.3609648 0.061003275 -0.16730428 0.6180041 0.5686521 -0.53830534 -0.94230264 0.43459034 0.17504478 0.5842135 0.17099322 -0.03216702 0.13265347 0.48211074 0.5614183 -0.0394066 -0.24840064 0.37277344 0.2850252 -0.3322914 0.83962595 0.012883748 0.78279465 0.4438818 -0.2672774 -0.8021635 -0.31308857 0.3071534 0.12766118 0.14672375 -0.16368254 0.5796206 0.13420163 0.50237834 -0.027466618 0.66526085 -0.074381575 0.7265536 0.91910815 0.059162088 0.5807955 0.45008546 -0.10490301 -0.117029786 0.1393705 0.49541244 0.23284239 0.029759202 0.06997082 -0.40888613 -0.10981625 -0.10211094 -0.19651558 0.21798918 0.5130357 -0.08979302 -0.3940657 0.15859891
259 -0.20768568 -0.43411493 -0.91467637 0.31827506 -0.0319663 0.88074094 -0.17387386 -0.07091006 0.2450138 -0.3594916 0.2692858 0.004545587 0.27949497 0.14285597 0.03949584 -0.29036844 0.063651405 0.16099465 0.15138434 0.27708596 -0.14701281 -0.54694206 -0.3907348 0.49960634 0.5326634 0.18542853 -0.093063354 0.26881164 -0.032777265 -0.01983906 -1.4440227 0.3259264 0.13114172 0.13601965 -0.41470945 0.14558601 0.20296419 -0.4130203 0.55058134 -0.17226578 -0.07289381 0.14731494 -0.33178657 0.26730022 -0.259041 0.44371915 0.39057148 0.51918423 -0.26256788 0.36808795 0.7889696 -0.32440573 0.9155419 -0.3387917 0.004454081 0.17411591 0.04971321 -0.64921415 0.18898426 0.2856426 0.4747373 0.5539157 0.6440481 -0.07249869 0.08942678 0.5971928 -0.10320888 -0.82163715 -0.32212988 -0.17260891 0.5377582 0.060006678 -0.18545987 0.24453759 -0.3772959 -0.68627584 -0.2749667 0.15708797 -0.5193189 -0.18674985 -0.12802653 0.3016585 -0.28472948 -0.076862134 -1.1107242 -0.08066286 0.02520391 0.39123428 -0.44034514 0.14553346 -0.56419337 -0.4150291 -0.005092703 -0.5895799 -0.086472005 0.063563816 0.0057343193 0.10579872 -0.21535829 -0.42672372
187 0.34232888 -0.79424983 -0.39745322 0.32106683 -0.14071798 0.74033165 -0.063777044 -0.123560704 0.13898039 -0.24129167 -0.39046666 -0.3310432 0.09672247 0.5555654 0.9103265 0.060497466 -0.05535718 -0.48275456 0.013564312 -0.18766204 0.48265022 0.1284569 -0.18672886 0.4219893 0.7427527 0.23966767 -0.25261828 -0.299599 -0.4355744 0.003412308 -0.71153104 0.30481923 0.12794809 0.056196023 -0.36988506 -0.24337696 0.013902062 -0.30506784 0.46666384 -0.35452047 -0.23716846 0.17499758 -0.41168585 0.26584002 0.2132566 0.3078231 0.40976098 -0.19330983 -0.40003967 0.49231094 -0.3149868 0.48781672 0.37607083 -0.44634533 -0.1408657 0.6752533 0.22301364 0.0009788777 -0.14514841 0.3718818 0.08480209 -0.22991583 0.6861309 0.28657612 0.8756901 0.4117924 -0.12167797 -1.1241864 -0.34885776 -0.024997376 0.22286122 -0.2176427 -0.38999307 0.8099818 0.4846014 0.22086845 -0.07876066 -0.034280207 -0.42207596 0.5866122 0.6603531 -0.36117128 0.28125036 0.21996647 -0.07970456 -0.3970721 -0.008038991 0.36116317 0.3627102 -0.06060963 0.4224565 0.1905128 -0.015793279 -0.6438748 -0.23588763 0.38144633 1.0069996 -0.1868367 -0.35074216 0.15079044
