34 10
1 -0.015617 -0.023774 0.010010 -0.029662 -0.047049 -0.008364 0.013393 0.009415 -0.027356 0.035491
34 -0.020086 -0.008679 0.006602 0.018628 0.002674 -0.048134 -0.039872 -0.002730 -0.018513 0.003846
33 0.001105 -0.042894 -0.014813 -0.025046 0.003407 -0.019956 -0.034047 -0.023940 -0.027234 -0.037559
2 0.033735 0.043921 -0.035014 0.019018 -0.003540 0.049146 -0.002849 0.046661 0.002432 -0.006988
5 0.004504 0.034414 -0.039026 0.026943 0.046322 -0.031732 -0.001340 0.036685 0.037489 -0.044705
4 0.018862 -0.042708 -0.032670 -0.048714 0.035472 0.049031 0.009882 -0.023554 -0.013145 0.015668
7 0.019306 0.009173 0.020986 -0.009654 -0.024031 0.022881 -0.007839 0.038602 0.025386 0.022287
31 -0.020639 0.041141 -0.041639 0.003665 -0.016093 -0.044343 0.015955 -0.003115 0.019830 -0.002658
14 -0.026405 -0.037164 -0.012840 -0.033379 -0.030830 0.020489 0.028072 -0.013288 0.009101 -0.040983
3 -0.012977 0.034065 0.034427 -0.022229 0.041388 0.011302 0.005054 0.017548 0.036490 0.007119
32 -0.031713 -0.020605 0.015071 -0.024864 0.033901 -0.034652 0.021496 0.047947 0.033562 0.024591
9 0.015798 -0.021748 -0.007572 0.034488 0.009292 0.048713 0.010936 -0.033860 -0.014418 0.013210
27 0.006238 0.045520 -0.024752 -0.016242 0.036044 -0.048738 -0.005612 -0.023096 0.028560 0.043157
30 -0.027063 -0.029766 0.012625 0.032701 0.036459 0.034848 0.022861 -0.039831 0.043035 0.040861
8 0.015414 0.000973 0.044530 0.001801 0.049697 -0.011575 0.046449 -0.037606 0.027387 -0.006132
26 0.019802 0.021153 -0.010275 -0.004438 -0.046761 0.042885 0.041799 -0.010754 0.024503 -0.019859
24 -0.030240 0.031092 -0.026538 -0.021477 0.034805 -0.049031 -0.009234 0.030885 -0.016568 0.032042
25 0.016778 0.049111 0.025802 -0.027097 0.042071 0.028269 0.027853 -0.012393 0.034501 0.010291
23 -0.030139 -0.047866 -0.041793 -0.020738 0.046731 -0.021254 -0.026631 0.013411 0.020728 -0.035063
20 0.009939 0.044961 0.011030 0.038551 -0.047994 -0.023940 -0.030801 0.008695 0.030203 -0.035483
10 -0.025558 -0.049957 -0.018204 0.000700 0.048299 -0.001752 0.033181 0.004934 0.024048 -0.028245
15 -0.044434 -0.044714 0.034031 0.035848 -0.026208 0.042583 0.004165 -0.028058 0.044598 0.009754
22 0.033987 -0.047593 0.048704 -0.014055 -0.035187 -0.035284 0.007755 0.008363 -0.041756 0.041575
29 -0.046712 0.027337 0.034199 0.042972 -0.029720 -0.008024 -0.020135 -0.002412 0.013444 -0.046498
21 0.045367 0.008549 -0.019569 0.018766 0.045855 0.017114 0.000552 -0.010330 -0.025149 -0.048493
6 -0.036092 0.019048 0.006065 0.012584 0.047792 -0.015935 0.043005 -0.005104 0.042532 -0.013162
18 -0.030783 0.001183 -0.024124 0.026927 -0.002630 0.007353 0.002799 0.048895 -0.043704 0.038843
11 -0.021888 0.011896 0.029248 -0.021054 -0.013636 -0.027086 0.045143 -0.025725 -0.011453 -0.027362
13 0.009756 -0.047764 0.037260 0.035446 0.019577 -0.045341 0.007923 0.022146 0.024165 -0.023987
12 -0.034668 -0.033731 0.011447 -0.034832 -0.039587 -0.030575 0.004357 0.046589 0.049226 0.010096
28 0.028280 0.004863 -0.017385 0.003950 -0.028284 0.008410 -0.019267 0.034692 -0.010068 0.017419
16 0.029078 -0.046310 -0.046684 -0.030640 0.034418 -0.027257 -0.007987 0.045186 -0.006596 0.035030
19 -0.008049 0.029700 -0.012315 -0.043718 -0.043558 -0.041351 0.035328 -0.004352 0.044174 0.035908
17 -0.012140 -0.031333 0.033765 0.012373 0.006888 -0.033281 0.008757 0.042987 -0.007361 0.005156
