11 10
4 -0.019870292 -0.023895273 0.004403489 0.0051364456 0.046451047 0.032081533 0.021176929 0.024367156 0.042209506 0.018869478
3 0.046768628 0.012341776 0.049536414 0.021870939 -0.01626233 0.0048903082 0.037206776 -0.03238663 -0.046781126 -0.04608699
1 0.039274823 -0.023094252 -0.01600978 0.032397274 -0.003823453 0.008549019 0.019335747 -0.033496488 -0.01892763 -0.0201327
2 0.037381716 0.0223521 -0.017732037 0.031297307 0.0040675984 -0.04858602 0.024939245 -0.043093447 -0.04029741 -0.04869629
5 -0.00053903786 0.035670735 0.006904382 0.016168235 -0.043681372 0.015265832 -0.02319146 0.0027512314 -0.0076087606 0.039433282
7 -0.03648581 -0.02394173 -0.005402367 0.0020598462 0.04028339 -0.032380257 -0.0066480096 -0.027702462 -0.029073773 -0.039276186
6 0.027958019 -0.03642909 -0.027562192 0.042017147 0.036242634 0.04217983 -0.02630298 0.008957675 -0.0014623229 0.017090395
10 -0.015375318 -0.015357708 0.027688915 -0.037789464 -0.0052320655 0.049135383 -0.048522525 0.0059348145 0.009988774 -0.018219117
9 -0.019036112 -0.03141697 -0.020627853 -0.018926667 -0.03971909 -0.02394438 -0.018710442 -0.045349002 0.013822439 0.0013161785
8 -0.04545826 0.021314902 -0.04579611 0.040057525 -0.04447773 -0.004213203 -0.038988534 -0.015518912 0.034162126 -0.003763204
11 -0.013129626 -0.0030576414 0.02427798 0.039148543 0.03751667 0.0022792243 -0.03258666 0.03134039 -0.0001625239 -0.015334448
